0,1,2,3,4,5,6,7,8,9,10,11,12,13,14,15,16,17,18,19,20,21,22,23,24,25,26,27,28,29,30,31,32,33,34,35,36,37,38,39,40,41,42,43,44,45,46,47,48,49,50,51,52,53,54,55,56,57,58,59,60,61,62,63,64,65,66,67,68,69,70,71,72,73,74,75,76,77,78,79,80,81,82,83,84,85,86,87,88,89,90,91,92,93,94,95,96,97,98,99,100,101,102,103,104,105,106,107,108,109,110,111,112,113,114,115,116,117,118,119,120,121,122,123,124,125,126,127,128,129,130,131,132,133,134,135,136,137,138,139,140,141,142,143,144,145,146,147,148,149,150,151,152,153,donor
7.3640285e-06,1.3007176e-05,7.46701e-05,3.702158e-05,0.00015865972,-0.00062380166,0.0004772028,9.5173324e-05,-0.00034265165,0.000106218715,6.531344e-05,0.0006189321,2.7092776e-05,0.00020076719,-4.4795993e-06,0.0007148805,1.1600113e-05,7.0579713e-06,0.0010921536,-0.00027451388,0.00021321022,-0.0005128284,0.00014981821,0.00039953165,0.00013338387,-8.594827e-06,-8.169623e-05,0.00013994095,0.00025341607,0.0010205888,-1.890138e-05,-0.00017548443,0.00058302685,-0.00044954894,-0.0003856658,0.0009622569,-0.0002801326,-0.00027946013,0.0008834016,0.00016392593,0.00083205977,6.911605e-05,-2.8271123e-05,-0.0009056759,-0.00022895381,0.0002331097,-0.00016796618,7.081763e-05,0.00025859373,-7.688092e-06,9.642512e-05,-1.7249193e-05,2.1353862e-05,1.871593e-05,6.258695e-05,0.00013188389,0.00028962988,4.064815e-05,-0.0002768739,6.347588e-05,-0.00045882625,3.1007152e-05,0.0002718326,-0.0006299819,5.139211e-05,0.00013233388,-1.2309064e-05,4.5959863e-05,-0.0008487853,-0.0009509881,-0.00078725565,1.8022165e-05,0.00039085845,-0.0006647396,3.9043836e-05,0.00017098889,-0.00025084047,1.0888795e-05,-0.0004433042,0.000115052695,0.0009991843,-0.00063161174,0.00019672891,0.00035677358,0.0033331478,-0.00055370707,0.00021983605,5.868075e-06,-0.00014137969,-0.00015209314,0.00013928486,-0.00029129515,0.0008518285,-6.6044624e-05,-0.00012305837,7.401736e-05,0.00014876408,0.00010475124,0.0018655112,1.4014464e-05,-0.0003796649,-4.268121e-05,2.4618706e-05,-0.00013695784,-0.00068832526,2.8366823e-05,0.00032960344,9.977695e-06,0.00038285126,-0.0007204288,1.054493e-05,0.0002471473,-0.00010295387,0.00011468815,-0.0011007563,-0.0007407827,5.8082396e-06,-0.00016112773,0.00012703994,0.00023124108,-0.00020936521,-0.00016770336,0.00017586717,6.983085e-05,-0.0005648696,-0.0001044697,-1.909434e-05,0.00090067607,0.0023114693,0.0010354739,-0.0006386707,0.00024337297,-6.6087945e-05,-0.00011632502,-0.00010022866,0.00026322936,-6.4605376e-07,-7.506046e-06,-0.0004376715,0.001213682,-0.0006969112,6.722829e-05,-6.730899e-05,-0.00048500733,-0.0010359589,1.2061884e-05,-0.000509713,1.7824967e-06,5.985956e-05,-0.0007601943,0.0010530283,7.864821e-06,-0.00034855303,0.00019630091,Donor:HBsRE_1
0.00025137325,0.00023970478,0.0002905878,-0.0006226342,-0.00032475367,-0.0010776033,0.00051681837,0.00065253105,0.00014477735,-0.00092351716,-7.7124234e-05,6.874268e-05,0.00039769505,-0.00042118237,-2.0804866e-05,-7.899305e-06,-0.0003454212,-8.847398e-05,-0.00014051909,-0.0006857655,0.00040976217,-1.8058861e-05,0.00020198063,0.0005486859,4.876946e-05,-5.474587e-05,-3.2820168e-05,3.3405046e-05,2.9845967e-05,-0.0001358866,-0.00019283012,0.00061710377,-0.0004096151,0.000666771,-0.0007973597,-0.0003638744,8.1674116e-05,0.00036070455,0.00037665514,0.00072230294,-0.00022702753,-0.0003024902,-0.00019627878,0.0008411927,9.656517e-07,-0.00040519374,-7.042481e-05,0.00030400243,0.0003014023,-0.00013527987,-0.00036205858,0.00037625353,2.1474738e-05,0.00013229995,-0.0006085497,-0.00016525542,0.00015732762,0.00034119314,0.0005133665,-0.0007037859,2.966233e-05,-8.7825334e-05,0.00042297933,-6.4836466e-05,-0.0001297012,0.0004441103,1.009058e-05,-0.00020761516,-1.2995064e-05,0.00036974275,-0.00021455246,0.0006986622,-0.00072031637,0.000100443234,-0.00039252406,-0.0005041783,1.0632732e-05,-7.189461e-05,-0.0005362872,0.00042713998,5.1149313e-05,8.137905e-06,-0.000297828,-9.15949e-05,-0.00018866365,-0.00028978047,-0.000162108,8.8197245e-05,-1.759767e-05,-0.0005582067,0.00089536165,-0.000562994,0.00039892137,-3.3028224e-05,-0.0005497958,-0.00042870652,0.00012623143,-0.0003358101,-9.285879e-05,0.00021887897,0.0004696533,9.844568e-05,0.0006136746,-0.00024368425,0.00039659272,-0.00041560474,0.00067842397,0.00069261086,-0.00017556685,-0.0011612623,0.00035794737,0.0001542144,-9.920279e-05,0.0004244441,0.00015530421,0.00011450437,7.5693756e-06,-0.0006616539,9.424142e-05,-0.00032643476,0.00044760224,0.00030628953,1.5923473e-05,0.0007588626,0.0008199809,0.0004392126,0.0006307154,0.0008321265,0.00065642036,8.673499e-06,3.337719e-05,6.741264e-05,-0.00011772887,-0.0006095744,0.00037449438,-0.00025423456,0.00021649509,0.0004538131,-0.00019062037,0.0009136348,0.00012740906,-0.00029670694,0.0005473105,0.00036586195,-0.00013762391,0.0006021734,9.337776e-05,0.0005004799,0.00011820824,4.8543705e-05,0.00026032107,5.3480293e-05,8.495345e-06,0.00011656247,Donor:HBsRE_10
0.0006627062,-0.0003530128,-7.7737335e-05,-0.002268317,0.00025421815,-0.000573327,-8.808956e-05,1.46276125e-05,-0.0011276861,2.708858e-05,1.7855558e-05,0.0012261666,0.000109871355,1.2539264e-05,-3.7183625e-05,0.0009003587,-0.0005944044,-0.00031103223,-0.00018524578,3.241627e-05,0.00060130877,-0.00036795196,-0.0006604537,1.0118242e-05,4.3588538e-05,2.6973303e-05,-0.00014949731,0.0005005325,-0.0007694594,-0.000447706,-0.0006846405,-2.8665994e-05,-0.00093212136,0.0012859488,-2.3154631e-05,-0.0006617255,-0.00040320778,0.0005037666,-0.000747221,4.0120693e-05,0.00024485405,3.2211403e-06,-0.00071903376,9.574105e-05,-0.0007612107,-0.00054217724,-0.00022685368,-0.0011241229,2.1770336e-05,-1.4214411e-05,-0.00047413047,-0.0003022042,0.000322677,0.00017319243,-1.6268267e-06,7.024853e-05,0.00041894824,4.2167635e-06,-0.00079135445,-0.0002768203,0.00021511028,1.0219601e-05,-0.00046498497,8.288079e-07,4.4582075e-06,-0.0014895332,-5.160484e-05,0.0004740631,-0.00031172988,-0.0010039851,0.00033166248,-0.00045641116,-0.00042941433,0.0003013421,-0.0014505242,-0.0002665083,4.0160056e-05,4.3715747e-05,0.0008232618,-0.00025312655,-1.2880623e-06,-2.7305008e-05,0.00031571387,-0.00029065183,5.0674353e-06,-0.0009354911,-0.0007841022,5.815715e-05,-1.2218099e-05,1.6871574e-05,-0.0014504478,0.00012531578,7.446266e-06,1.279364e-06,-5.7011624e-05,1.3948897e-05,8.318699e-06,-0.00085969554,0.0009321749,-0.001393734,0.00013257159,-0.0001348048,-6.764114e-06,-0.0007334514,0.00044463936,-1.3175834e-05,-0.0021370228,-0.0004226105,-0.00029749752,-0.00077497965,-0.0005180762,7.7144745e-05,-0.0001628795,-9.414808e-06,-0.0001951856,-3.4869267e-05,-0.00030222276,-1.4552161e-06,-0.00034460853,-0.0012392525,0.00024978878,-1.9439256e-05,-0.0012313385,2.061598e-05,-1.0569919e-06,1.9269792e-05,0.000109240274,-5.5708093e-05,0.00020088823,-0.00074539235,0.00038465575,-1.9530098e-06,-6.827891e-06,1.1675168e-05,-8.785375e-06,5.732124e-06,-0.00028466573,8.098195e-06,0.00011594516,0.00090006884,-7.4448326e-05,0.00017750669,-0.0014250026,-4.7950525e-05,6.9327834e-06,0.00039761103,-0.00041076646,-0.0005069339,1.6082993e-05,6.2262366e-06,-9.0827496e-05,3.6271474e-06,-1.2631911e-05,-0.00018074832,Donor:HBsRE_11
5.7498737e-06,-5.2869473e-06,-8.700865e-06,8.669539e-05,-5.5939377e-05,0.0001153418,-5.1136398e-05,8.102591e-05,-4.161952e-05,0.000116604104,-2.793441e-06,-1.0401127e-06,-1.07156374e-07,2.036926e-05,-2.5754755e-06,0.00028110444,0.00014275924,0.0004479042,7.9890706e-05,-8.962133e-05,-0.00011090523,-2.5042516e-06,-1.1485508e-05,1.4373603e-05,6.4751745e-05,1.0080717e-05,1.2002889e-05,2.0594302e-05,-9.343847e-05,-0.000114115115,0.00039489564,-9.407431e-06,-7.090278e-05,7.913293e-05,-6.8729555e-06,0.00010466763,-3.291719e-05,-0.00016499692,2.9748696e-06,-1.2179771e-05,-5.798087e-05,-0.00016800902,-2.0091982e-05,3.3498864e-06,5.1383457e-05,3.2638927e-06,-1.6200576e-05,-1.0829313e-05,2.4990509e-06,-4.357424e-06,-6.5055996e-05,0.0004684926,1.4435389e-05,-7.934e-06,-1.3578755e-05,-8.634209e-06,0.000108856344,5.195172e-05,-5.9544163e-06,9.0159934e-05,-8.613283e-06,5.723591e-06,6.1319886e-05,-1.8022134e-05,0.00029447713,0.00012330832,-9.913756e-06,8.158323e-06,-5.4770785e-06,-1.2898326e-05,1.5052708e-06,-2.8004708e-05,8.926648e-06,-2.690895e-06,4.807833e-06,-3.5747962e-06,-5.7963655e-07,0.000447256,-3.1146614e-05,4.804344e-05,-2.3096327e-06,-6.9630216e-05,-2.5396152e-05,1.9952306e-05,-4.521908e-05,-5.5960995e-06,1.4547933e-05,-0.00011366128,-2.2446384e-05,-1.8925228e-05,-4.9622126e-06,-0.000161603,-1.07060805e-05,-4.001521e-06,0.00025076375,-3.1449933e-06,-4.0690957e-06,-2.7699398e-05,-6.7567667e-06,-3.6125393e-06,-0.00014577153,1.8213317e-05,-3.207227e-06,-4.678818e-05,-5.4727097e-05,0.0002520985,6.395808e-05,-1.142079e-05,-0.00016444268,5.1825627e-05,3.3219626e-06,0.00014898017,5.338558e-06,-0.0002818933,2.5973843e-05,-1.3510842e-05,-5.1022424e-05,-7.890765e-06,1.4741418e-05,-5.828463e-05,-1.6443151e-06,2.4161668e-06,-6.580382e-07,2.035064e-05,9.408045e-05,-7.453135e-05,0.00034639874,-9.8943696e-05,0.00020809134,1.8516032e-06,2.175077e-05,1.2687991e-05,3.0512365e-06,-4.326055e-05,-7.8349485e-06,-2.7843525e-05,7.767725e-05,-3.363389e-06,8.741938e-05,0.00017717414,6.7587564e-07,1.3672264e-06,0.0015705837,-0.00017052211,-0.00014155783,3.684188e-05,-8.912546e-05,2.1645446e-05,2.4714996e-06,4.4214103e-05,8.2086844e-05,-2.0874804e-06,9.221619e-07,-1.0552716e-05,Donor:HBsRE_12
-3.4401382e-05,1.7103048e-06,-1.4674865e-05,7.9044716e-05,1.493871e-05,-2.341393e-06,-5.5719767e-05,1.2559868e-06,3.134351e-07,5.06203e-06,-4.060029e-05,6.0755243e-05,-0.00027771952,5.145355e-05,2.212912e-08,2.6361915e-06,2.0207283e-06,1.4860929e-06,-4.6475772e-05,-0.00063917635,-3.314697e-05,3.7295442e-05,2.5169453e-07,2.1372027e-06,3.6299367e-05,1.5630028e-05,8.5654785e-05,-9.568894e-06,-3.3840406e-05,8.2703606e-05,-4.7035073e-07,5.2901905e-06,3.2068147e-06,-7.2083094e-05,-0.0005061641,0.00022935065,-3.6873313e-05,0.001651063,-2.8361458e-07,2.1008907e-05,4.134831e-05,-6.3001564e-05,5.7325053e-07,-2.1881664e-07,-6.580179e-07,4.863618e-05,1.3657558e-05,-6.532988e-07,4.304261e-06,0.00038556423,-6.690523e-05,-5.2618844e-08,0.000116492556,-0.00011521926,3.3825086e-07,-8.1677615e-07,5.067619e-06,1.069156e-06,-0.00016758982,8.285132e-06,-4.4264267e-05,-6.0891907e-05,4.7839108e-06,-1.110205e-06,-5.4149834e-05,5.975237e-07,-8.1774175e-05,0.00065517554,-4.7730548e-05,3.4912107e-05,1.29372e-05,4.412786e-05,1.2357747e-06,-4.5107945e-06,-2.078428e-06,2.6957696e-07,-4.0294206e-05,-0.00010338487,9.15245e-07,-9.3192045e-07,2.9955122e-06,-0.00012956584,-0.00012305562,-1.7322147e-06,-2.1086441e-07,2.625199e-07,-8.173096e-06,0.00089005707,1.9543256e-06,-0.0006394703,1.7862621e-07,-6.6307395e-05,5.297899e-05,-1.0690051e-05,6.0578355e-07,0.00017500536,-3.271425e-06,-2.3630923e-06,-0.00019040977,4.730917e-06,0.00095123437,8.794781e-05,0.00018487472,-6.209055e-05,-1.07706185e-07,-1.7130549e-06,9.665328e-06,-3.224323e-06,-4.988279e-07,-0.00021069219,-1.6679188e-06,5.0080365e-05,-5.1083876e-05,2.8674887e-05,-1.0066019e-06,9.732302e-06,-0.0001349719,7.0877366e-05,4.347675e-06,4.710156e-06,-1.3298898e-06,-1.3480926e-05,1.7935318e-07,-1.3314703e-05,1.9040749e-07,-0.00019369811,-9.38457e-07,-1.6065316e-05,-9.301404e-05,4.009073e-05,0.00014119322,1.9420988e-06,2.9245588e-05,-2.6037715e-06,-9.192847e-05,8.795493e-06,8.93517e-07,-2.4479905e-07,1.6032958e-06,0.0001894611,-2.5958568e-06,-3.0684525e-05,2.9801982e-05,-0.00036236102,-9.228428e-05,-7.925095e-05,2.8866436e-06,1.7837255e-07,-3.1858246e-05,-3.7186295e-05,-8.4695824e-07,-5.1816423e-05,0.0006282984,3.1862397e-05,Donor:HBsRE_13
-0.000112368325,-9.959757e-05,-8.523139e-05,1.3420541e-05,-0.00011985761,2.0322734e-05,-9.6022726e-05,-0.00015560992,5.702366e-05,2.6638885e-05,3.3748868e-09,-0.000111260924,-2.1427455e-05,-0.00010839523,5.4178505e-05,1.962823e-05,-8.606303e-05,-6.927234e-05,-8.826582e-05,8.931962e-06,2.3965968e-05,1.7338394e-05,-3.1560798e-05,5.075089e-05,-7.921486e-05,-8.466846e-06,-4.2662405e-06,-7.812004e-05,4.2510997e-06,7.231891e-05,2.203711e-05,-3.860706e-05,1.2489686e-05,-5.511839e-05,0.00079412165,-4.9357724e-05,3.6517317e-06,0.0009857224,7.5957114e-06,-9.763517e-05,4.367882e-05,2.9839262e-05,1.220893e-06,-1.5719339e-05,5.6456292e-06,-6.245874e-07,-2.6685018e-06,7.669479e-05,-1.6291949e-06,1.8593195e-05,4.7535534e-05,-0.00014261778,-4.248106e-05,2.5590489e-05,0.00079957815,5.0753e-05,-7.3107384e-07,-1.3459702e-05,-2.3957166e-06,-1.0251637e-06,-7.333004e-05,7.1635804e-05,2.0604666e-05,5.3585278e-05,-0.00017513905,2.6900778e-05,-0.0002686526,4.7117042e-05,-4.4696073e-05,7.631908e-06,-7.912874e-05,-3.9141854e-05,-4.1852923e-05,6.3295716e-05,-0.00026307727,-5.334815e-06,-1.9939549e-05,9.052152e-06,5.156975e-06,-8.701965e-07,-8.4189625e-05,-0.00010297592,-0.00019774032,3.7299953e-06,-0.00011751218,0.0005048328,5.3358683e-05,-0.0003119105,-9.014539e-05,-0.00024505306,-2.7649548e-07,-2.4404646e-05,-6.827384e-05,-2.2373275e-05,-0.00010819192,1.03092e-06,-0.00012991024,-6.549892e-05,0.00012363837,-0.00020449264,0.0007157526,4.0918563e-05,-3.692348e-06,-5.254227e-06,0.00012974055,-4.0693492e-05,-0.00013616176,-8.413134e-05,-5.0909297e-05,-0.00022872185,-7.176731e-05,-0.00025228248,-6.6150555e-05,6.477605e-05,-2.1933829e-05,-7.339878e-05,-2.7448215e-05,8.315503e-05,-1.3962202e-05,-9.652909e-05,1.5633802e-06,7.020275e-05,-5.2722407e-06,-9.7640994e-05,-8.9067964e-07,-4.584203e-05,-6.731676e-05,3.0483394e-05,-3.244985e-06,3.4842695e-05,-0.00012408453,-0.000135528,1.1226597e-06,-4.0166724e-05,1.3785264e-05,3.7994735e-06,-9.3953656e-07,-2.8526663e-05,-0.00011357099,-0.0001145063,-9.303327e-05,-4.8765094e-05,3.3288623e-05,0.0005927434,-8.513624e-05,4.7311805e-06,2.5098805e-06,0.00088904373,-4.6486268e-05,4.140858e-05,3.8782542e-05,-8.65817e-05,-9.361191e-05,5.5323748e-05,Donor:HBsRE_14
-0.00010931711,0.00010618116,0.00097406143,-4.8124393e-06,-7.8426216e-05,-0.0020277456,0.00016311562,-1.2450011e-05,-0.0003808162,1.9994973e-06,-0.00011978583,-2.7092467e-05,-3.17078e-07,-0.00061281194,-0.00013618835,8.946863e-05,-0.00037864642,0.00016502976,-7.558335e-05,-0.00012756717,8.753778e-06,6.1366496e-05,-5.53637e-05,-0.00023342588,9.640703e-05,4.5545774e-05,-7.3280717e-06,9.3298095e-06,1.947862e-05,-6.754007e-05,0.00042802418,-8.476698e-05,0.00011218115,8.691843e-07,0.00031983692,-2.1158336e-05,-0.00014333478,-0.00014578395,2.567675e-05,8.277309e-05,-0.00015137962,0.00016464757,0.00024129711,0.00017719968,-6.846152e-05,0.00015755842,-0.00013559194,9.1011476e-05,-0.00013149783,-4.0037703e-06,0.00012742195,-0.00013274065,1.9320114e-06,0.00029702586,-0.0001478739,-3.5432713e-05,0.0002483708,-0.00011261749,-0.00013525832,2.8062395e-06,1.4467974e-05,-2.1530084e-05,-7.162013e-05,0.0038220834,2.0471505e-05,-5.859345e-06,5.2451196e-05,0.00022429464,-4.413588e-05,0.00016530226,-1.3396814e-05,-0.0001318156,0.00013356378,-2.8912122e-05,-0.00015420876,9.250584e-05,-0.0017312308,9.056078e-05,-0.00012364953,-7.779096e-05,2.6376765e-05,-3.5011542e-06,-0.00019683158,0.00050191174,0.0007749243,0.00019947195,0.0001635881,-6.69188e-05,0.00043022112,0.0006641397,-0.0007362061,-0.00014554194,1.8461995e-05,0.00046045217,-4.511295e-06,2.1935735e-05,-3.9508177e-06,-8.627806e-06,0.00027424985,8.426937e-06,-1.732722e-05,7.5786564e-05,1.633618e-05,0.0005958496,-0.00012579726,3.5993227e-05,-5.854997e-06,0.00014460005,-0.0003037557,-0.00011906539,-0.00018193184,6.25186e-05,-6.847088e-06,-5.21955e-05,0.0002631017,-1.3245001e-05,-6.3681496e-06,-1.901843e-05,4.6882153e-05,-9.628381e-05,5.4328197e-05,0.00088269246,0.00012690658,-0.00014852441,2.0231444e-05,0.00032581127,0.00024673284,0.000955162,-5.4759295e-07,9.72555e-05,0.00017732025,2.4927154e-05,-0.00015125808,-0.00028827862,-8.155329e-05,0.00010240045,-0.00010063714,-0.00015274606,-5.694456e-05,0.0004270498,-9.116214e-06,0.0008332185,-7.874097e-05,-2.0102747e-05,-0.00011486384,0.00012485453,-0.00044564946,2.1212052e-05,-1.0763405e-06,-8.246497e-05,0.00016052747,-4.9697337e-06,3.610445e-06,3.0670228e-06,Donor:HBsRE_15
-0.00047288992,2.0383179e-05,0.00038368732,-9.678215e-06,-1.1325228e-05,-2.959847e-05,-3.5348244e-06,-0.00013432904,-0.00012372382,3.4277332e-06,-0.00016212442,3.111677e-06,-4.3613305e-05,0.0008169159,1.3464998e-05,-0.0004575963,0.0004730118,-0.00015038616,-7.991621e-05,-2.5968622e-05,-0.000808889,-2.5144649e-05,-5.2005485e-06,2.3460154e-05,-9.093596e-06,-3.0529554e-06,-3.8146714e-05,-0.0001055238,6.799672e-05,-0.00011706491,0.00010977385,-2.2472455e-05,1.0499812e-05,6.702281e-05,-0.0003168417,-7.071265e-05,-1.6050231e-05,-0.0001138688,-0.00013030646,9.372393e-06,1.7665765e-05,0.00042874482,-1.5407323e-06,-1.9832964e-05,-8.806436e-05,-1.5058398e-05,-0.00016537437,9.359004e-06,1.6893156e-06,0.0001468217,-0.0006117493,-1.1986054e-05,-2.0036046e-05,-5.4628013e-06,-2.9680206e-05,-0.00015662106,1.0396655e-05,4.2594416e-05,6.9941393e-06,1.340899e-05,-4.77668e-05,-4.467585e-05,-9.628638e-06,-4.938311e-05,3.0907893e-05,0.00044309525,4.6957284e-05,-0.00033334017,3.5221055e-05,-4.1782525e-05,-4.527022e-05,-9.9441204e-05,-0.00039726892,-0.000113879105,-0.00016837502,-6.632708e-05,3.8346587e-07,6.2077515e-06,0.000108486485,-1.0563812e-05,-4.1568846e-06,-0.0001601517,-0.00012542306,3.782037e-05,-5.92632e-05,-1.0425634e-05,0.00014361771,-7.176009e-05,-2.7495078e-06,4.604269e-05,0.00041306976,-8.1703496e-05,-0.00048137127,1.9779702e-05,7.395042e-05,0.00053118507,-0.000119141776,-0.00011481126,2.3025475e-05,-0.00071389927,-2.0980653e-05,-2.5067222e-05,0.00011410271,-6.409064e-06,9.982384e-06,-0.00046658976,5.355576e-05,-0.0007973719,0.00022404872,0.00010693076,-9.573192e-06,-0.00040817936,-4.9447324e-05,-1.014601e-05,6.8600057e-06,-0.0001164539,-3.8219107e-05,-0.00012988425,-7.297878e-05,-3.566346e-05,9.279959e-06,0.00043637905,-8.720698e-05,-5.8663016e-05,0.000112167414,0.0005329868,-1.388755e-05,-0.00016401903,-0.00010034493,0.0005001231,2.8046576e-05,0.0001767751,3.4627565e-06,-0.00050585915,0.00047412183,3.511703e-05,0.00046829937,0.00050933874,-0.00011731441,-1.3495923e-06,-0.00017143905,7.901459e-06,7.866474e-05,-3.255739e-05,8.3563624e-05,1.08791155e-05,-5.8186483e-06,0.00056242326,8.089241e-07,2.3860323e-06,-1.2086e-05,8.2918086e-05,-7.450587e-05,0.00017413365,Donor:HBsRE_16
-7.3417023e-06,-9.3458755e-07,-1.1037195e-06,2.1031979e-06,-1.0847841e-05,4.683472e-06,9.272635e-06,1.7910354e-05,-8.1012495e-06,-3.9901042e-07,-7.241969e-06,-9.802627e-07,2.4973244e-07,1.9804163e-06,2.98258e-05,-2.973274e-07,-5.17412e-06,-2.498129e-06,1.3047711e-05,-1.4533717e-05,-8.877599e-06,-1.4012686e-05,-1.0234616e-05,-1.1385879e-05,-1.506772e-05,3.637931e-06,-1.7358566e-06,-7.9033816e-07,4.626559e-06,-1.5761941e-06,1.3062644e-06,-4.5287898e-06,2.1965284e-06,8.580813e-06,7.107817e-05,-6.931444e-06,4.9866903e-06,0.00010462544,5.7714115e-06,-2.8895183e-06,-1.0151035e-05,-1.9392387e-06,-8.1003445e-06,2.2344865e-07,2.927447e-05,-1.37565385e-05,-1.1097388e-06,4.699774e-06,-5.27005e-05,-8.549173e-06,2.6002745e-06,7.777923e-07,-5.552971e-06,-2.444763e-05,-6.3419184e-06,-5.8286005e-06,5.6452886e-06,-1.34202855e-05,1.3388597e-05,3.5037328e-07,2.193503e-06,1.3090096e-06,9.102427e-06,0.0013248017,-2.4201421e-05,-4.2898817e-05,-0.001283425,2.8660463e-05,-1.4209603e-05,-4.322525e-06,-1.4420406e-06,7.017749e-06,3.3299405e-06,-3.7443622e-06,-2.3270064e-05,-2.3818993e-06,0.00028627104,-6.632546e-06,7.8525153e-07,-2.0149153e-05,-3.7577897e-06,-2.108995e-06,-2.321727e-05,-1.27349485e-05,-1.2512976e-07,-9.7034945e-06,3.821322e-06,0.00024479735,2.5158229e-06,-2.5792888e-05,-3.4804343e-05,1.0253124e-06,-9.860472e-06,2.4264461e-06,1.0345468e-06,2.3887815e-05,2.875514e-06,6.6909856e-06,-5.945689e-07,5.8061314e-06,-2.057776e-05,1.2693347e-05,8.941348e-06,1.0546527e-08,-0.00016293171,-3.9237166e-06,1.2183809e-05,6.735462e-06,-1.3826423e-07,-0.00085597206,-9.617793e-05,-3.5696553e-06,-2.067769e-06,4.6318505e-06,1.7843035e-05,-2.1984545e-06,7.117556e-08,5.2506184e-06,4.6169803e-06,-1.9178672e-06,-7.3216015e-06,-1.97738e-06,6.3530324e-06,-1.2425384e-05,-6.299604e-07,-9.578367e-06,-3.749958e-06,-4.0028885e-06,-9.660167e-06,8.532628e-06,1.232269e-05,6.169333e-06,-1.136527e-05,-2.7633348e-06,-4.3273467e-06,1.6442676e-06,0.00019460559,1.3864485e-05,2.8541465e-06,-3.9247057e-06,-1.7058796e-06,1.1399287e-07,-5.46769e-06,0.00015898055,7.640777e-06,0.00017997189,-1.6782194e-06,-1.6712787e-05,-6.3394677e-06,-3.92351e-05,3.2110283e-06,2.163104e-06,3.6452644e-07,-1.450724e-05,Donor:HBsRE_17
-0.00024292158,-4.4102784e-05,-5.373722e-05,0.00010943209,-0.00014653718,0.00022446799,-0.00018055743,-2.5465004e-05,5.2032334e-05,-0.00015764602,-0.00010556515,2.1491323e-05,0.0001817933,0.00015619039,1.9589661e-05,0.00034710337,-0.00012520967,-1.4191904e-05,-2.175092e-07,-1.2490229e-05,4.7627586e-06,-0.00017056715,-0.00019120301,0.0003000239,1.0905661e-05,4.2626976e-05,9.072534e-05,-7.943446e-05,-0.00026922888,3.209155e-05,-1.6082741e-06,4.5041147e-06,0.00019974663,-1.5746167e-05,-5.2563013e-05,0.00057315844,-4.2451105e-05,-0.0005894523,-0.00010392647,1.8140952e-05,-6.5285435e-06,-5.7948208e-05,0.00010593713,-0.0003496236,0.0001571962,-0.0001627745,3.2752618e-05,-0.00044309886,-5.2391653e-05,3.5501926e-05,-2.8783934e-05,0.00020488353,-0.000213425,-1.1058132e-05,-0.000146506,-3.261181e-05,6.975696e-05,-0.00038951237,-5.4887998e-05,8.342679e-05,-2.640676e-05,-2.7235259e-05,0.00034130766,0.000114225906,0.00025745443,9.592923e-05,1.2995588e-05,3.0203983e-06,-0.00016425899,5.1044524e-05,9.398563e-06,5.1224037e-05,0.00063720066,0.00013042016,0.00038590922,0.00019282554,0.00030263653,1.7928134e-05,0.00014155841,-0.00040146033,-0.00014015524,3.681804e-05,-0.00023102797,0.000107482876,-0.00022566697,-0.00013872123,-5.8393412e-05,-6.239019e-05,-6.316833e-05,0.00018632814,-0.00051493576,-0.00023746125,0.0001427903,2.794168e-05,-8.4503205e-05,0.00024862858,-0.00086971396,-0.00014100208,-0.0002857393,8.1006096e-05,-0.0006203021,-3.0068099e-05,-8.297657e-05,-2.8160022e-05,0.00018089855,3.6506983e-05,2.5543393e-05,-0.00017038453,5.0413957e-05,0.00021999652,-0.0002856797,0.00010332897,8.508789e-05,-6.3161446e-05,1.093299e-05,9.7697975e-06,0.00011489917,-0.0001281313,-1.2982985e-05,-6.534032e-05,-1.1022077e-05,-3.9853483e-05,3.4864622e-06,-0.0002793108,0.0003647905,9.626194e-06,-4.7747504e-05,-2.77912e-05,-5.691451e-05,-1.8071742e-05,0.000131007,-3.832408e-05,0.00019557835,0.0002787542,-6.0126884e-05,6.775098e-05,6.1699706e-05,0.00017683725,-6.678644e-05,-0.00020513414,0.00025906652,-5.7459125e-05,-0.0003283158,-0.0007155596,2.3529577e-05,-5.0931154e-05,0.0006137266,-2.9442286e-05,0.00010678337,-8.707495e-05,-0.00021304752,-1.8285427e-05,-3.4521567e-05,4.021483e-05,Donor:HBsRE_18
0.00024802692,1.9901252e-05,0.00047956812,-5.8989583e-05,2.8187615e-05,-0.00072998815,2.5781135e-05,0.00014443324,-6.128213e-05,0.00048295967,3.7931346e-05,3.9168463e-05,-4.006132e-05,3.254301e-05,-3.776894e-05,1.4054218e-06,-0.00016278755,3.328044e-05,-1.9422701e-05,-3.0117342e-05,-0.00041569571,-4.57535e-05,2.3688855e-05,-0.00022300915,-4.1539595e-05,-3.732396e-05,3.7078084e-05,4.4347165e-05,-0.00017900976,5.688289e-05,0.00019418461,-0.00013024479,1.8956469e-05,-7.483863e-05,2.1176986e-05,-0.00049701775,0.0002468242,2.721863e-05,0.00029471697,-0.0005019289,-7.894021e-05,0.00029265112,1.4164179e-05,-1.7927534e-05,-0.00019292101,0.000108247856,0.0001725213,-4.5199817e-05,-0.00012675684,-4.9384045e-05,-0.0004274796,-0.00035257603,3.4758254e-05,8.440577e-06,9.680642e-05,0.000348464,8.71742e-05,-5.925195e-05,-5.035345e-05,-0.00027933443,3.4526543e-05,-3.888367e-05,-0.00017062972,-0.00026951215,0.00016708835,-0.00031363012,1.0485043e-05,1.030722e-05,-7.4303043e-06,0.00029266122,5.5578465e-05,-0.00031024442,-6.071525e-05,2.7866225e-05,0.00023119079,-0.00031254426,3.5086738e-05,3.4315122e-05,-0.00046834498,0.0001348279,-5.3946053e-05,3.7908972e-05,4.5591176e-05,-0.00033714288,-7.614455e-05,8.566931e-05,-0.00021957805,-2.1267476e-06,-3.336079e-05,-8.473823e-06,-7.0482005e-05,0.0002062048,-7.784015e-06,3.5799654e-05,3.5357076e-05,-0.0001688897,0.0005021192,0.00018434986,-6.859381e-05,6.992141e-05,-8.452872e-07,-1.7991943e-05,-3.8952956e-05,-0.0002129494,3.658882e-05,-3.805659e-05,3.624852e-05,-4.7152687e-05,6.888783e-06,-0.00012976337,-0.0005040673,6.4496155e-05,-3.34272e-05,-0.00012132869,-5.547372e-05,-6.7096575e-05,7.36607e-05,-2.836974e-06,-0.0001937457,-2.1546015e-05,-0.00020546402,4.393171e-05,-2.7570744e-05,-0.00024069035,0.0001928109,-0.00019330104,-0.0002792495,-0.00044999,-3.477123e-05,-5.64041e-06,-1.3121528e-05,-1.7948618e-05,3.426845e-05,0.00045234218,-0.00036123995,1.7967208e-05,-5.8497917e-05,-3.4778233e-05,0.00014714294,3.807011e-05,-3.3896038e-05,-3.555269e-05,7.030342e-05,7.697572e-06,-0.00053878303,1.1513381e-05,-1.0794015e-05,3.807668e-05,-3.391564e-05,0.000108709966,0.00029398076,-5.3101347e-05,3.539396e-05,-0.00071955,Donor:HBsRE_19
1.904267e-05,2.7401625e-06,8.356226e-06,-8.987606e-05,7.474379e-05,-2.5754376e-05,6.471781e-05,-3.719876e-05,0.00036874434,-2.415598e-07,3.0054518e-05,2.8354507e-06,-3.2935623e-05,7.879768e-06,-9.4117295e-06,-7.868302e-06,-7.0496826e-06,-4.6601235e-05,3.7513088e-05,-1.7091063e-05,1.8927303e-05,-6.849999e-05,-5.0920935e-05,-4.0482948e-05,3.271676e-05,1.6750492e-06,-4.041621e-06,-1.9507612e-05,-3.8420498e-05,-5.9195096e-05,2.016027e-05,-6.056835e-06,-6.5644376e-06,1.4189977e-06,-0.001107587,5.198448e-06,6.666254e-05,-0.000119314136,-5.9030812e-05,-9.927591e-06,-2.2796068e-05,-3.8768947e-05,2.360027e-05,1.7219995e-06,6.067176e-05,-1.2038375e-05,-3.755888e-05,3.331456e-06,6.7030683e-06,-3.480166e-05,-3.735021e-05,9.170812e-06,-5.1808394e-07,-0.00020466585,5.8062906e-05,-4.0401817e-05,-2.126808e-05,2.2474009e-05,-2.6678246e-05,-5.610169e-05,8.478806e-08,-7.703564e-06,5.5734585e-05,-2.1666781e-05,6.988023e-05,-5.7052133e-05,-4.4055218e-05,0.00016310529,1.1090057e-05,-3.1160776e-05,3.0058104e-07,-0.0013218434,-1.1519692e-06,4.7538197e-06,-1.2733635e-07,3.9267852e-05,0.0012733691,0.00018609774,-3.9244296e-05,-2.5324283e-05,2.722355e-06,-3.236458e-05,7.031063e-07,2.7412201e-05,2.969058e-07,-0.0001214058,-2.584653e-05,-3.2427106e-05,-0.00021981458,-0.0005337948,-7.139114e-05,1.619393e-05,-7.2074385e-05,1.9270283e-07,3.6596061e-06,1.2001702e-06,6.685152e-05,0.0015296617,-1.5663638e-05,-3.5999265e-06,3.1860975e-05,1.00475045e-05,-0.00012147771,-2.3358662e-05,5.687382e-07,6.9364214e-06,1.6883861e-05,-2.3828708e-05,-1.109788e-05,-8.85616e-05,-2.096959e-06,2.8399996e-05,-1.4916363e-06,-0.000110388726,0.000108766035,-8.687791e-08,2.0527677e-05,1.4071366e-06,-0.00011398123,-3.7768103e-05,-0.00010767898,9.4048794e-08,1.2784922e-06,7.5106595e-06,-1.0183612e-05,1.7768383e-05,-0.00010608316,-1.282062e-06,-1.4646758e-06,-2.2662799e-07,9.671146e-07,2.3701784e-06,1.3135031e-05,8.22947e-06,9.677501e-05,-9.5457335e-06,-8.420098e-06,-1.5053495e-06,2.4078845e-05,-1.9791036e-05,2.9397948e-05,2.3527069e-05,-1.1058992e-05,-2.3680426e-05,2.1261729e-05,-0.0002605023,9.98051e-06,-7.100758e-05,-1.9223397e-05,-3.1707625e-06,-2.887464e-05,-1.792658e-05,4.2872261e-07,-3.0137982e-05,Donor:HBsRE_2
0.00031602624,-0.00028058878,-3.9021925e-05,0.00032681826,6.414041e-05,-0.0007208098,0.00023279291,0.00011074394,0.00017120417,-0.00015603541,-0.0005498205,-0.00031812952,8.259489e-05,0.00037550906,0.0007503344,0.00036933468,0.00011910866,-9.657498e-06,8.4498584e-05,0.00010341918,0.0004536355,5.6163168e-05,-0.00038596103,-0.00020711705,-3.394697e-05,5.4022188e-05,0.0018418576,0.00021725349,-0.000308566,-0.00015293167,8.977052e-05,-0.00036529507,-0.0001899862,0.00075656327,0.00020875807,1.1785966e-05,-0.00010858565,-2.9029043e-05,0.000103751,3.3462456e-05,0.00018673454,3.6040845e-05,0.0002298696,-6.488141e-05,0.00012388175,-0.00022475564,-0.00047489695,-0.00020814504,-0.00034697604,6.528398e-05,1.0765852e-05,-0.0003428076,-0.0006163708,0.0007746959,0.00037720733,0.00041728147,-0.00037706006,-0.0004233599,0.00036730076,3.0733547e-05,0.00032827986,-0.0003782178,-4.7084315e-05,0.00026974006,-0.00022664577,0.00025374838,-1.4406608e-05,-0.0001621721,0.003044261,0.00023092265,-4.468408e-05,0.00031181396,-0.00016508416,-0.0004818851,-2.833804e-05,-0.00026077908,-4.243094e-05,-0.00039299723,0.00027798113,0.00026346117,7.148648e-05,0.0007879401,0.00024808507,-0.00019595987,-1.0452652e-06,-4.520964e-05,0.0006184344,-3.063304e-05,-0.00021616614,-6.9697e-05,4.1043993e-05,4.4060318e-05,-0.00022892345,0.00020091521,-8.713888e-06,0.00045348247,0.0005402342,-1.1750756e-05,0.0003502414,-6.488612e-05,-0.00010561957,-5.9246846e-05,0.0012054888,0.00037787124,3.209449e-06,8.415514e-05,-0.00028143116,7.934622e-05,0.00023706284,-0.00028459338,5.377037e-05,7.076149e-05,-0.00060554454,9.1919464e-05,-0.00010340728,4.167214e-05,2.551636e-05,-9.015575e-06,0.0024030763,0.00021375623,8.56131e-06,1.0040909e-05,-0.0019075347,0.00035399225,0.00028190724,0.00031691924,-5.143047e-06,-0.00021952447,-6.3588515e-05,6.0169572e-05,-0.0024152966,1.3027992e-05,-4.4522294e-06,-0.00043005444,7.229262e-05,0.0004561259,0.0002673176,0.0003421297,0.00028646513,0.0017832286,0.0029426727,-0.00024917495,-0.00020232126,-0.00010856471,1.0725849e-05,0.00016970988,4.518523e-05,0.00018189262,-0.00017322088,0.00038152884,-9.877756e-05,-0.00044966757,0.0031261994,8.90435e-06,Donor:HBsRE_20
3.80345e-07,-2.1911178e-06,-6.5571123e-07,6.4809933e-07,2.7094914e-06,2.2750758e-07,-2.5892235e-05,-2.5157597e-06,-1.2448609e-05,1.1834392e-06,-7.4011115e-07,-1.3432248e-06,-6.664159e-07,1.458725e-05,9.1134757e-07,-4.2113716e-05,1.7552768e-05,-2.2306407e-05,1.3743492e-07,-0.0001006225,-3.5644327e-05,-1.5144406e-06,4.6309148e-07,5.60674e-07,4.518113e-06,-1.6760682e-06,-1.1475091e-06,-9.670695e-05,-5.0464896e-05,-6.279168e-06,2.209867e-06,-8.707095e-08,-6.6072806e-07,-4.239963e-08,-0.0007084602,1.9098921e-07,-1.4420579e-07,7.109966e-05,-2.920419e-07,-4.6877324e-07,1.6160422e-07,3.2358483e-07,-8.9577105e-07,5.015233e-07,-1.9855415e-06,5.6953386e-06,-1.5614494e-05,-5.274153e-05,2.126968e-06,4.870089e-07,1.3077413e-06,-4.3434076e-07,5.073367e-06,1.4598276e-05,1.6261645e-06,-6.4037505e-07,-1.0871781e-05,-2.276612e-06,-4.130186e-06,8.1302505e-06,1.5159596e-07,-6.227752e-07,1.7805536e-05,1.4442329e-06,8.015303e-06,6.532604e-07,1.5381484e-05,0.00019440058,-3.905713e-05,-1.4770457e-06,-5.5607916e-07,8.353092e-07,6.1451956e-06,5.192886e-07,-2.0816115e-07,7.9754653e-07,-3.1724845e-05,1.19193055e-05,-8.466506e-06,2.0054642e-07,-2.09033e-06,1.4854403e-06,0.0009176019,-9.573591e-06,-4.3136546e-07,7.036906e-06,-5.079705e-06,-3.0102124e-06,-2.0858808e-05,-0.00050205167,-1.9065661e-05,-7.892884e-06,2.8881323e-05,5.023831e-07,1.8479994e-05,-9.4023574e-07,8.6277043e-07,-1.3893135e-05,-1.7405269e-07,-5.2995356e-06,-2.6963608e-05,2.2498076e-05,6.1905206e-07,4.1847346e-07,5.6170757e-06,-8.883035e-07,-4.99583e-07,-3.5026878e-07,-3.74859e-07,0.0013116694,-5.2758255e-06,1.08584935e-07,-5.4614827e-07,1.5583497e-07,-8.349933e-07,-6.064719e-07,4.148395e-07,1.7767032e-07,-2.8980178e-06,0.00080353057,-2.944463e-07,-3.6347512e-05,-2.5870335e-05,6.2105545e-07,-3.2763563e-07,-2.5641448e-06,2.6114455e-07,-1.8196131e-05,-1.9529423e-05,-3.207797e-05,0.000103437116,-1.9271542e-05,-2.3202539e-07,1.8843042e-07,1.9126148e-06,3.6843833e-06,1.1617043e-05,1.1135306e-06,-2.5539508e-05,-3.0614692e-07,-3.7864038e-06,3.3714252e-05,-0.00021923076,-0.00012137754,-2.520959e-07,-4.2484994e-06,6.323254e-08,1.0897101e-05,-1.121604e-05,1.3094218e-06,-2.1467918e-06,-4.022824e-08,-6.0633254e-05,1.2265173e-06,Donor:HBsRE_21
0.00019952824,0.00021109966,4.296468e-05,-0.00016185653,-0.0002123856,0.00013409427,-1.910346e-05,2.9129706e-05,4.5799893e-06,-5.3025724e-05,0.00021732623,-0.00013220568,-0.000104079736,4.897647e-05,-4.3535034e-05,4.554324e-05,0.00013430335,-0.004146122,0.00011006582,1.2482061e-05,2.7153486e-05,-3.9155842e-05,0.0001525487,-4.1636496e-05,-5.997817e-07,-3.1462067e-05,0.00023102683,0.00019434073,-1.6663978e-05,-0.00012485051,0.0001789035,-0.00016675128,9.872942e-05,-5.1440293e-05,-0.000110306995,-3.7390706e-05,9.526427e-05,-3.169994e-05,-2.6866267e-06,5.4602566e-05,9.487569e-05,4.622722e-05,-0.00014445072,-0.00011608828,-0.00024916817,-3.2242977e-05,-7.228343e-05,-0.00019870115,-7.4016854e-05,0.00018897017,5.6007782e-05,-5.606754e-05,0.00018454547,0.00019048335,-0.000153384,-0.0025183093,-5.70657e-05,-2.6528218e-05,-5.024524e-05,0.00017585962,0.0001917024,-8.638559e-05,-0.00019111761,-8.921776e-05,-6.597172e-05,0.00020413034,-2.2380515e-05,-0.00040909724,0.00029946136,-0.00012817999,-1.5686312e-05,-0.00012085243,3.5568588e-05,4.667251e-05,7.9997684e-05,0.00022129634,0.00023276359,0.0012025553,-0.00011269874,5.1818985e-05,-0.00016115014,-0.0010289336,-0.000120814366,-2.2128752e-05,-3.793279e-05,5.0046012e-05,-0.000113182075,9.324095e-05,-4.494508e-05,-7.3482355e-05,-4.152808e-06,-6.105748e-05,-0.00011740051,7.4629907e-06,1.2919209e-05,0.00014608506,-0.00010668253,1.858706e-05,0.00015739189,7.48839e-05,4.241191e-06,-0.00020336822,4.3149645e-05,4.9291946e-05,8.628512e-05,-4.880708e-05,5.3217802e-05,-8.611235e-05,-0.00012436991,-0.0002702397,-0.00020531549,0.00015237593,9.456264e-06,0.0046871784,-6.0784925e-05,-7.6997526e-07,0.00015915048,0.00014223174,-5.3195454e-05,-6.496953e-05,1.9834315e-05,4.150856e-05,-0.00013565429,-0.00015263096,-5.670213e-05,-0.00019559161,5.9186277e-05,-0.00010492083,-6.926312e-05,7.943114e-05,0.00028476483,-0.00013454368,-6.160485e-05,-0.000110773166,-0.00011506603,-4.6762652e-05,5.0914983e-05,-6.104589e-05,-2.0981206e-05,7.109962e-05,-0.00011909627,-3.1807536e-05,5.355067e-05,-1.948253e-05,-0.00010492666,0.00013467863,-5.0929575e-05,-0.00012141542,0.00021482451,5.641679e-05,2.9816056e-05,-8.655246e-05,-9.270587e-05,-0.00011863462,Donor:HBsRE_22
-0.00010059107,-1.03449615e-07,0.00011132118,-1.0218219e-05,-3.1212956e-05,5.2984296e-06,4.8804548e-05,4.8074184e-05,5.5853445e-05,-8.2313545e-06,-4.1453488e-05,-7.036729e-06,-4.0756233e-05,3.1059855e-05,-1.1803719e-05,3.862856e-05,2.0191406e-05,7.4565825e-05,-0.000109547174,-4.6862815e-06,-3.7127455e-05,-3.63021e-06,9.5842e-05,4.867519e-07,6.0829483e-05,3.1695126e-06,-0.00022670762,-0.00030846594,4.7219248e-05,0.00010142889,7.152397e-05,-5.1695246e-05,8.138232e-05,-1.5143484e-06,-2.2866785e-05,-1.3745987e-06,3.985079e-05,-0.00028684485,0.00011558963,-1.017545e-05,-8.587775e-05,-0.00018865008,9.554165e-06,3.157611e-05,8.121994e-05,7.607297e-05,0.00011380412,-1.6501457e-06,0.00010071854,-3.1901434e-06,3.780912e-05,-6.893657e-06,-0.00019210807,-8.5642874e-05,4.3147434e-06,-2.4653489e-06,0.00010795996,3.9008538e-07,-0.00019052313,2.3986186e-05,1.7859693e-05,-1.5977246e-05,4.685986e-05,3.867966e-05,3.8320635e-05,0.00017285337,-4.8926555e-05,-4.455419e-05,-0.00028707608,5.157443e-07,-3.343016e-05,-3.0392657e-05,4.2813932e-05,-0.000112246664,-8.216078e-05,6.7398724e-07,-7.171547e-05,-1.4531969e-05,3.9202732e-05,8.998413e-05,0.0001367731,2.6838588e-06,-6.5088716e-05,2.7621843e-05,-0.0001472147,-4.8451577e-05,7.3317733e-06,3.862654e-05,-2.1573955e-05,3.000197e-05,8.563491e-05,1.4119154e-06,-2.6131502e-06,1.7874121e-05,5.2628643e-06,-4.659186e-05,-7.19009e-05,-0.00021514039,0.00015387502,8.463061e-05,-6.223247e-05,5.7914626e-06,-4.77705e-06,-2.2424363e-05,3.6358426e-05,-4.212159e-06,-1.0150599e-05,2.095414e-06,9.122066e-05,-9.4842384e-05,-4.2177897e-05,-8.991988e-06,5.8380792e-05,8.195024e-05,-2.6148326e-05,4.4728527e-06,-0.00014118584,1.0921495e-05,6.1429646e-06,0.00013386046,-3.5722413e-05,-4.9362065e-05,0.00011661811,-4.355068e-06,-4.2512173e-05,1.6564858e-06,-1.0698894e-05,-3.803009e-05,-0.00024551313,1.5596885e-05,-0.00016880182,1.0178037e-05,-3.902646e-05,8.036626e-06,3.273049e-05,-1.6825527e-06,-6.0181534e-05,-2.0762302e-06,-8.533995e-05,-3.9762668e-05,3.0195157e-05,-2.2794435e-05,-0.00017669088,-0.0004260064,3.7767306e-05,7.539922e-05,-0.00015759947,-1.3392867e-05,-1.580232e-05,-2.7380195e-06,-8.281749e-05,1.0209118e-05,-0.00022810724,5.24389e-06,Donor:HBsRE_23
-1.29098225e-05,0.00035785369,1.0245505e-05,-0.0012794498,7.777935e-06,-8.916878e-06,-0.00013591154,-5.8758474e-07,-2.0893798e-05,8.11118e-05,0.0004699189,-0.00021072743,4.8843776e-05,0.0023287572,0.000938238,0.0024480312,-0.00043171368,0.0020522838,-0.00036405685,0.0006541502,-0.001224153,-0.00013465925,-7.530529e-05,-6.233683e-07,-0.00026155912,3.5750116e-07,-8.545873e-07,0.0012721105,-2.9196945e-06,1.4620131e-05,-0.000598591,0.0014473487,0.001097088,0.0009604402,-0.00027516764,0.0001420166,0.00040711474,-0.0003667091,8.485398e-06,0.0015756325,0.00078289484,0.0006862521,-0.0010749024,-5.336147e-06,-1.0569121e-05,1.799721e-05,2.1775722e-06,0.0002584174,-8.0217425e-05,8.8337365e-06,0.0004954236,0.0015620879,0.00063131854,2.996894e-06,0.00069577293,-0.00015547319,-0.0002513731,7.6004353e-06,-0.00058245816,1.5558397e-05,-0.00042071726,-0.00020079683,0.00083522365,-0.0005180931,0.00022654822,0.00070343906,-5.59467e-05,4.52635e-05,-3.6402133e-05,-1.5528634e-06,0.00019992993,-1.2838905e-05,-0.0009802339,-7.139941e-06,-0.0018187213,0.0013372168,4.9330406e-06,3.6955498e-06,0.001266002,-0.00039247065,-0.00057467964,1.5153601e-05,0.0003470428,-1.45163685e-05,3.2350395e-05,1.0117819e-05,0.00048485002,0.00014075136,-0.00040943228,0.0009625804,2.458356e-06,-0.0017822711,0.000334061,4.8725333e-06,-7.547317e-05,0.0056919064,3.0875082e-05,0.0013100229,-0.00067653006,0.00043862077,-0.00041903078,-2.0150999e-06,2.1936573e-06,-5.377176e-07,0.0004537901,0.00033379218,-6.3574844e-05,-8.648023e-05,0.0028600171,0.00089666405,-6.1653523e-06,-6.5740633e-06,-0.00033346552,0.0011712669,2.488155e-06,-1.7036889e-06,-1.4916347e-05,0.0022514313,-1.17118625e-05,4.658842e-06,0.00070685084,0.00031942327,0.0017810438,0.000536887,0.0017351174,0.00019161226,-0.00082380534,0.0022195957,1.4183448e-05,-3.847293e-05,0.0013285318,-2.1427784e-06,-3.5650824e-05,0.0010802165,-0.0015328289,-0.00019738046,0.0012775642,0.000463006,3.019641e-06,0.00015030486,0.0005750154,0.00059031864,0.0014249661,-0.00034456942,-0.00036932633,9.5221066e-07,1.9296009e-05,0.0024081727,-3.1385127e-05,-7.693175e-05,-1.3466416e-06,0.000153164,0.0015791635,0.001486984,Donor:HBsRE_24
-0.00033833756,-0.00029172507,-0.00019421385,-5.452135e-05,-1.0364868e-06,0.00012390992,2.6716063e-05,0.00031285814,-9.0002163e-07,0.000101258884,0.0002351855,2.8875746e-05,-2.2535198e-07,1.6960148e-05,4.0746865e-05,-8.9450765e-07,6.441577e-05,-0.00022867414,-3.5809087e-06,-7.4941156e-05,-0.00011444472,-1.4124703e-06,1.9677951e-05,0.00020481566,7.0607615e-07,6.4010004e-05,0.0002403091,-1.8698521e-06,1.1672263e-05,1.0946492e-06,6.312234e-05,-0.00015442848,-0.000186398,-5.1935655e-07,0.00025464813,0.00021180412,-1.6360401e-06,-0.00063143356,-0.00013932811,0.00028544603,0.000297799,-8.414853e-07,6.0532195e-05,1.8804203e-05,2.436787e-06,1.0866432e-06,-6.1248704e-07,-0.00021010324,-6.487558e-08,-3.355618e-05,-9.3994555e-07,0.00037469863,-0.0014088812,-2.4875757e-07,-0.00017219271,-6.178145e-05,0.00026753728,1.6485134e-05,2.5095546e-06,-3.889673e-05,-7.0529546e-07,-1.7971734e-05,-9.560504e-05,-0.00014660558,9.568333e-07,0.00062461966,9.689237e-05,-0.00020217412,-3.6127094e-05,-4.611803e-06,-4.1909907e-06,0.00038715103,0.00013417362,5.2790754e-05,-8.169408e-05,0.00023798857,2.4102073e-07,6.8063537e-07,-2.9734183e-06,-0.00039518363,4.5866813e-07,0.00029443527,-3.733943e-05,9.777074e-05,2.6747862e-06,4.5147152e-07,-7.1104136e-05,-0.00018967364,0.00026120018,0.0003198377,0.00013080527,-3.9441084e-06,-8.8513465e-05,5.664099e-05,-8.1718304e-07,-9.9305704e-05,-4.0131304e-06,-0.00017874126,1.419699e-06,0.00026356577,-0.0005049548,4.4857866e-06,-0.0002213813,-0.00018226648,0.00021830371,-7.9761e-05,1.6383236e-05,0.00067748706,-7.313606e-05,0.00020460092,0.0001724996,7.1137015e-06,-6.3252804e-07,-2.6669431e-06,-7.949646e-05,-2.7313035e-06,-8.916286e-06,6.1711275e-05,-9.907937e-05,-0.00013860282,-3.600828e-07,1.5613614e-05,-7.372652e-05,2.2705019e-05,1.3487501e-05,0.00022414635,-0.00014017073,2.313218e-07,1.9599816e-05,4.8473372e-05,-2.4679405e-06,-5.0198605e-06,-8.7982546e-05,-5.3098018e-05,-7.3021976e-05,-0.0004094189,-0.0003416391,-1.6925155e-06,-4.2628694e-06,5.6985897e-07,1.1455784e-06,3.5640746e-06,-0.00031617578,-0.00084589457,-1.2095875e-06,-1.2883169e-05,-0.00034359907,-8.6904096e-05,2.6253583e-05,0.00034567172,-1.361344e-06,3.2913247e-06,-1.4607696e-06,3.092578e-05,Donor:HBsRE_25
-0.00017571365,7.683509e-05,-3.5231216e-05,-8.109484e-05,9.2848044e-05,-1.3032169e-05,-5.7833495e-05,0.0002484119,0.00012806116,0.00065470394,0.00020429601,-6.054442e-05,-8.23078e-05,2.4911351e-05,9.5273e-07,-2.4747525e-05,-1.1022749e-05,0.00015896048,0.0001409239,-0.00014661386,-3.2581378e-05,-0.00012060014,0.0001675162,-1.6829383e-05,9.7355325e-05,0.0002620335,-0.00020869299,-0.00046248976,0.00039824296,0.00017195778,0.00020242039,-0.00012641583,3.5730518e-05,-3.2043925e-05,-0.0009223283,-0.00019588014,-2.3833996e-05,-0.0013033305,0.00010863117,4.9772694e-05,5.949038e-05,0.0003069463,-3.3971093e-05,9.824195e-05,1.63854e-06,-5.8448906e-05,-0.0006214188,1.1032005e-05,-2.6615053e-05,-0.00032769752,-4.3310716e-05,-0.0023920308,0.0001838406,-0.0002393034,1.967927e-05,0.00019039153,-6.630599e-05,9.927333e-05,2.2860659e-05,-0.000126794,-8.4306426e-05,0.00015646948,3.376498e-05,7.620341e-06,2.0552856e-05,4.33342e-05,-1.2332661e-05,0.00079142407,-0.0006004992,-0.00017343236,6.213075e-05,-3.858094e-06,-1.3939008e-05,-6.583526e-05,-0.0005376795,2.5609701e-05,0.00015820067,0.0011840367,0.0001320277,-0.00046160852,0.00014313201,-0.00019149056,6.37075e-05,6.1606435e-05,-5.0415158e-05,2.1743703e-05,0.00019877276,0.0008017928,-0.00019421188,-0.00067325163,6.2373176e-05,2.3491837e-05,2.5777785e-05,-0.00019239877,-1.5920641e-06,-0.001798597,-6.3436484e-05,-3.319424e-05,0.0001390533,0.00010932824,-0.0014041844,0.00020374729,8.961258e-06,-0.00018456469,-1.4665961e-05,2.0400208e-05,-0.0011508729,0.0005275872,0.00024338468,-0.001911926,-3.4678542e-05,-1.1368098e-05,-7.992697e-05,4.075421e-05,0.0002894197,-7.338046e-05,-0.00013280452,-5.7204015e-06,-0.0012728366,-2.582538e-06,5.041741e-05,3.103819e-05,-6.79486e-05,4.9136845e-05,-3.2864915e-05,-0.001973388,-1.8077597e-05,1.6270227e-05,-0.000109218,0.00011533302,-0.00038965867,-0.0004249015,1.7011353e-05,2.481148e-05,1.753981e-05,-0.0021500306,0.00018424125,1.8985182e-05,-4.4238168e-05,-0.0011026809,0.00012834798,-1.5013063e-05,-9.7253964e-05,-0.0012222592,0.00014039208,-0.00015042875,-0.00018231446,0.0017391014,6.692317e-05,-1.0226725e-05,-0.00019584363,0.00010091445,0.00014118144,0.00016482078,Donor:HBsRE_26
6.992501e-05,2.2244263e-05,9.3186616e-05,0.00030061946,8.630425e-05,-2.83742e-05,6.0445138e-05,7.246276e-05,7.646229e-05,-1.6785498e-05,1.0130571e-05,-6.525611e-05,4.5208817e-06,2.379465e-06,-0.00013323681,5.1865612e-05,0.00027099866,0.0003018125,5.7549787e-06,6.7274836e-05,4.9998896e-05,8.204534e-06,2.304787e-05,2.795115e-05,1.3441138e-05,1.0165203e-06,2.793265e-05,-5.7663005e-05,-3.9748755e-07,0.00018486599,-5.593419e-05,0.00010933823,1.6979397e-05,-0.00020596058,0.0002127933,-0.00011664541,4.3965112e-05,0.00041433665,-7.85446e-05,3.9223618e-05,-5.762848e-05,6.555514e-05,4.3026193e-05,-4.3561527e-06,-0.00018426987,7.903017e-06,1.5518943e-08,-4.3888682e-05,8.244513e-06,4.498853e-05,-4.8092705e-05,-9.266775e-05,-1.3956297e-05,-9.725383e-07,2.8110844e-06,6.65252e-06,-6.683481e-05,3.8608232e-05,-1.6303691e-05,2.6498785e-05,-1.03738e-05,-6.2035765e-06,-9.479593e-05,1.3885072e-05,-1.5677675e-05,5.6160097e-05,9.647075e-06,1.0992235e-05,-4.7320427e-05,-6.894938e-06,-7.21926e-06,2.3314205e-05,6.6597495e-05,-1.4829576e-05,-1.883077e-05,8.040544e-06,0.00019401654,7.006535e-07,2.9632753e-05,-0.00013128828,6.168543e-05,3.362867e-06,-5.045054e-05,-4.120141e-05,-0.00012278893,2.1095462e-05,-0.0001713851,-0.00014873651,-9.738469e-05,3.039523e-05,-3.3604614e-05,8.5951015e-06,2.0477473e-06,-1.8861398e-05,4.0214807e-05,4.5616292e-05,-5.1170166e-05,-0.00019044739,-8.0307524e-07,0.0002540746,0.00042611238,-1.9933957e-06,-1.670263e-05,-8.912937e-05,-0.00018151545,-1.3749271e-05,6.6583605e-05,-0.00018206402,2.4164361e-05,0.00018688012,-0.00016471409,4.2934793e-05,3.607689e-05,-5.648984e-05,-7.135858e-05,4.987319e-06,4.656329e-05,8.0310865e-06,-0.00017089042,0.00013983254,-1.3048897e-07,5.383235e-05,1.1277597e-05,1.1546987e-05,-2.4143568e-05,6.554899e-05,-0.00018639269,5.8045203e-05,0.00013667606,6.79311e-06,-7.911637e-05,1.6056201e-05,4.4128545e-05,-2.4718697e-06,-0.00023017413,-6.666011e-05,2.3862498e-05,5.267856e-05,3.5078872e-05,5.4508415e-05,2.6241052e-05,-2.0291707e-05,-1.7753932e-06,0.00049969606,-0.00018176397,-1.2359404e-06,1.7085096e-05,1.4343617e-05,-8.147964e-05,-2.952374e-05,7.471423e-05,8.574661e-05,-3.6097346e-05,-2.6797341e-05,Donor:HBsRE_27
0.00014603183,0.00016606634,0.00044044876,3.1261996e-05,0.00015718806,-0.000105878265,-9.538056e-06,-0.00012786838,-0.000134286,0.00013004034,-2.4418892e-05,-9.4086194e-05,6.0027953e-05,8.636912e-05,-0.00015708957,-0.000116728945,4.71242e-05,-0.00011477804,3.445364e-06,-0.0003853575,0.00013063583,0.0001252973,0.00013181208,9.006193e-05,-5.7946752e-05,0.00029656332,0.00032595327,0.00010408572,4.882167e-05,-0.0002496054,0.00025384832,0.00018119403,0.00014362155,-4.5552395e-05,-0.000693657,0.00014108348,-4.9760376e-05,-0.0006271097,-0.00021598654,-2.5357218e-05,9.9634555e-05,0.00010445306,-0.00013926903,-2.329873e-05,0.00025235684,0.00014241699,-0.00014496665,-8.164067e-05,-0.000120331,0.00020609394,-0.00018108511,-4.7080026e-05,0.0004276647,-0.00029340395,8.6098255e-05,6.114128e-05,0.00012329825,0.000366189,0.00018516355,0.00017327863,-0.0001215722,-0.00014760131,0.00014048991,1.8981762e-05,-5.4944598e-05,2.8830174e-05,-1.50457745e-05,-0.00037396915,0.0006878369,-8.306269e-05,-2.2569788e-05,-0.000106976804,0.00017232216,5.9101054e-05,9.85451e-05,-5.567445e-05,-0.00021410671,2.4753047e-06,-0.00021758376,0.00014221662,0.00017680014,0.00029000515,0.00048797292,7.840029e-05,-0.00019907554,0.000128896,2.1236345e-05,-7.1494025e-05,0.0002752066,-0.00069397775,0.0001606037,-0.00012407951,0.00016449498,0.00011199408,0.00013416601,0.00018253562,-0.00015862101,-5.5301057e-06,-0.00030157814,-0.0001229076,0.00033692707,-5.7426318e-05,-0.0001560981,3.2717177e-05,-8.518365e-06,0.00014961166,-0.00014464515,0.00016160788,-9.88426e-05,-2.988382e-05,0.00018603283,-0.00018545958,0.00018225651,-0.00018085536,0.0004381698,3.5436566e-05,0.00017288598,-8.911956e-05,0.00022769494,2.739911e-05,3.086601e-05,-8.423565e-05,0.00015088098,-9.287071e-06,-8.342602e-06,-3.9311497e-05,0.00015863641,0.00034456776,6.280414e-05,0.00014397764,0.00024326213,0.00041594286,-2.6658563e-05,-9.333023e-05,5.5011515e-05,0.00018031587,1.991774e-05,1.6968379e-05,-8.6339445e-05,-7.974842e-06,-3.6677287e-05,2.1817406e-05,-7.6079275e-05,-0.0006986262,5.4753436e-05,-0.0003174833,9.539198e-05,1.2063328e-05,6.974225e-05,-0.00015162777,4.618053e-05,-0.00013714557,0.0004978854,-0.00012364876,Donor:HBsRE_28
0.00020693363,0.00012598844,0.00022036105,-0.00010651662,-6.1536e-05,-2.6964686e-05,6.7954046e-05,0.00011019423,0.00016007049,-0.00011318267,-1.5018685e-05,3.5409212e-06,6.392224e-05,4.9380575e-05,-0.000104017854,3.5407596e-05,0.00014110509,0.00022722936,6.383703e-05,-3.334078e-05,-5.7717305e-05,7.6260094e-06,7.21672e-05,-0.00017525595,5.4023563e-05,2.3170058e-05,-2.6431691e-05,6.7393274e-05,9.445965e-05,1.1170315e-05,0.00022448272,-0.00014146439,7.747656e-05,8.001631e-05,3.0525774e-05,2.6923788e-05,-6.117235e-05,1.4068837e-05,0.00018901606,0.0002093344,-0.00016125505,8.750544e-06,3.3727238e-06,-0.00027700694,-0.00021976308,3.9162882e-05,-0.00016222386,0.00020424993,3.595139e-05,2.4079445e-05,-8.812931e-05,-1.0282001e-06,0.00020978283,4.780679e-05,-6.827899e-05,-8.861397e-05,9.627872e-05,4.961342e-05,-9.0878326e-05,0.00010005709,3.3818564e-05,-3.0047739e-05,-0.00010818414,0.00012900376,8.337982e-06,0.00013894965,-6.5997447e-06,-1.7788636e-05,3.7823873e-05,0.0001996525,-2.337665e-06,-8.048592e-05,-0.00018829694,1.4724739e-05,-1.1138818e-06,-0.00018030652,2.2863213e-05,-2.596206e-05,0.00017032477,-0.00016114645,-0.00017212256,9.7692515e-05,-3.5658993e-06,0.00023675573,-0.00024039301,-9.614645e-06,9.588793e-05,1.2847073e-05,3.8080714e-05,-3.5604135e-05,0.00023968586,-9.3596755e-06,-0.00016105182,6.430363e-05,6.751418e-05,0.000122038255,6.406804e-07,0.00020853369,-6.677929e-06,0.00021468874,2.0068868e-05,-6.435015e-06,-5.351043e-05,-0.000119942364,-0.00013005498,1.9491701e-05,-0.000110439185,0.00015126381,0.0001939392,-0.00019057684,8.785869e-06,0.00010897509,5.7067235e-05,5.246607e-05,0.000114803064,1.4728481e-05,6.145265e-05,-0.00016096071,9.401326e-05,-3.889955e-06,0.00018377746,3.102441e-05,8.7454595e-05,8.893709e-05,-2.6953744e-06,5.8064954e-05,-9.893989e-05,7.766425e-06,-0.00015533959,-0.0001817334,0.00023431139,-5.8009673e-06,-1.2748716e-05,4.132213e-05,-9.0438785e-05,2.4389985e-05,0.00022638451,-0.00016496197,2.3916786e-05,-9.219182e-06,-2.5495267e-05,0.00024104386,0.00017989882,1.2886313e-05,0.00021834497,7.472595e-05,-0.000118369884,1.0105127e-05,3.6975493e-05,-0.00021463784,-3.6439338e-05,4.1313913e-05,6.1595783e-06,0.00016001087,Donor:HBsRE_29
-2.3365936e-05,-0.00028390065,-3.1629097e-05,0.000107736734,-0.00010920125,7.312002e-05,4.630057e-05,-1.4933727e-07,-6.8540474e-05,1.5123733e-06,-6.0870218e-05,-7.7715005e-05,-9.744566e-05,0.0001119766,-7.193818e-05,-0.00011977048,-2.9864057e-05,-0.000480774,-6.3086285e-05,2.314022e-05,-1.2361429e-05,6.37261e-05,-6.1402585e-05,0.00015664187,-0.00014323829,-6.352137e-05,-4.5313787e-05,4.534587e-05,6.6548135e-05,-0.000110132365,8.105697e-06,1.1515588e-05,-4.45996e-05,-2.396801e-05,3.4027238e-05,-8.563898e-05,1.8205192e-05,7.125487e-05,-5.4267795e-05,6.661135e-06,8.17556e-05,-2.3557723e-05,-9.230412e-05,-2.9808814e-05,-0.00014667612,0.000103322775,-8.04274e-05,-7.887057e-05,-7.9229474e-05,-0.00011577559,-3.417145e-05,0.0005495002,0.0001076872,5.25563e-05,-2.3201332e-05,1.0336375e-05,8.8244735e-05,0.00021223676,-5.4758075e-05,-8.925157e-05,9.464675e-05,8.558302e-05,-0.00010680441,0.00014079192,0.00010046143,0.00013119771,-6.7555548e-06,0.0005574462,-8.896742e-05,5.610006e-05,8.476417e-05,5.301957e-05,6.176553e-05,8.007864e-05,-2.4838017e-05,-8.004004e-05,7.1692215e-05,-0.0001644358,0.000146744,0.00054321263,-4.4726483e-05,-1.0968756e-05,-7.621261e-05,3.8227416e-05,-3.871164e-05,4.499318e-05,-2.76659e-06,4.854609e-05,7.164602e-05,1.6345219e-05,-8.0650105e-05,-7.219523e-05,1.6604587e-05,-0.00010539736,-1.3284418e-06,0.00012615073,-4.797114e-05,5.24611e-05,0.0001667691,6.6036814e-06,2.1613156e-05,3.8557322e-05,-5.817595e-05,9.8542674e-05,2.288905e-05,6.227093e-05,-1.00054385e-05,0.0010020757,1.5966818e-05,-0.0007652518,-0.00013716753,-9.971664e-05,8.0238206e-05,-4.510484e-05,4.1280964e-05,-2.828284e-05,1.1950698e-05,-0.00011145683,-7.902406e-05,-7.6195676e-05,-8.1726885e-06,0.00041516294,-2.4363735e-05,9.316349e-05,-5.5234632e-05,-8.578296e-06,4.2561565e-05,2.630829e-06,-2.6820378e-05,-4.5698314e-05,-7.8993085e-05,6.6310684e-05,-1.2781434e-05,8.6448534e-05,2.4323013e-05,-9.0282165e-06,8.417953e-05,-1.0230991e-05,-1.588307e-05,-3.2599506e-05,7.402587e-05,-4.041542e-05,-8.2518505e-05,-0.0004485885,-1.8156747e-05,-5.3866086e-05,1.6227232e-05,-2.2097234e-05,-6.4514075e-05,-9.020027e-05,-6.56946e-05,8.950387e-05,-7.0600196e-05,9.964707e-05,Donor:HBsRE_3
-0.005995295,-0.0007381457,-0.0022586866,-0.00047205787,-0.0005625482,-0.0056040036,0.0003950986,0.0005338348,-0.00059289124,0.0010692853,-0.0006709288,0.0006919212,-0.0010619708,0.0023718087,-0.0012456955,0.0006581395,0.0007264902,-0.0011538446,-0.0011389093,-9.956165e-05,0.0045188987,-0.000701901,-0.0011234907,-0.00028239994,0.00048177782,0.00019603397,-0.0007418834,-0.0019114914,-0.00069104636,-0.002714265,-0.0005108532,0.0014336287,-0.0002761038,0.004375421,-0.0001807252,0.00048345578,0.00088204653,0.0001561642,0.0004981821,-0.000615901,-0.0016020245,0.00039456022,0.005199818,-0.0059256176,-0.0020560534,-0.0014133328,-0.00037118484,0.00025143722,-0.0027200559,-0.0013962445,0.0028067925,0.005524771,-0.0035190575,0.00038031492,-0.0039998665,-0.0008636901,0.00049470505,-0.0063100294,0.0011227181,-0.0030729622,0.00095514563,0.0004254839,-0.00046885846,-0.0022018738,0.001094514,-0.0050369753,-0.00040346922,-0.0009789696,-0.005103979,-0.0014175153,-0.0023531404,0.00061991444,-0.0010807588,0.000917796,-0.0051015783,0.0004011227,0.00051561056,-0.00032765622,-0.0006619733,-0.0009595386,-0.0028160478,-0.0021908958,-0.0024608255,-0.0010504206,-0.0009932911,-0.0007886286,0.00047359656,-0.00077027216,-0.00014019337,4.5454668e-05,0.0017668103,-0.0003025827,0.0012362773,-0.0009997658,0.0055224816,-0.002226637,0.00016295783,0.002170556,-0.0008747763,0.00036216533,-1.3891035e-05,-0.00036428618,-0.0004949639,-0.0059450977,0.0012092061,0.0017008687,0.0019456743,-0.00133127,0.00039191538,0.0018223273,-0.0006753515,0.0005647916,0.0010432702,0.00093495584,-0.0013908449,0.00027979328,0.0028768098,-0.0013396924,-0.001160637,0.0026203447,-0.0012913856,0.00090380636,-0.00055187364,-0.00039521462,-0.0021899163,-0.0029990636,-0.0009552638,0.0005347067,-0.006069008,-0.0002866398,-0.0042373943,-0.0066553527,0.0040437873,-0.0026304522,-0.00033010193,-0.0005030629,-0.0012803313,-0.00486991,-0.0029596067,-0.00325687,-0.004025857,0.0006912714,-0.0010173495,-5.9546535e-05,0.0011143917,-0.00016988728,-0.001713248,0.0026511971,0.00071863923,-0.00030147616,0.0004027861,0.00057187764,-0.0032138901,-0.004245339,Donor:HBsRE_30
-2.2459005e-06,7.05596e-05,0.0002893021,1.1983296e-05,2.6769072e-05,-5.76466e-05,6.1201245e-05,1.42147255e-05,-5.244095e-05,-0.0004877069,0.00018708048,0.0002623221,-1.328261e-05,5.2996045e-05,3.1459695e-06,6.667601e-06,-0.00030852566,4.923143e-06,-3.3084758e-05,-1.5027087e-05,-5.925616e-06,-0.00028216667,-0.00014872011,5.956849e-06,-7.799497e-06,2.036055e-05,-4.4481658e-07,-6.852159e-05,4.7832113e-05,-6.0305847e-05,-1.7484967e-05,0.00011562227,-1.7742865e-05,6.450218e-05,-4.2278243e-05,1.8530563e-05,7.077132e-06,0.00023777038,0.00034474378,-4.4707995e-06,0.000310669,4.8662205e-05,4.992757e-05,0.0004202114,1.790253e-05,-3.74602e-05,-0.00028288868,8.606908e-06,-8.165855e-07,-0.0001711522,-1.1616287e-05,9.462166e-06,9.6224976e-05,-7.652774e-06,7.5704906e-05,2.8904247e-05,-0.00030267655,1.4773321e-06,4.7578993e-05,-5.8440605e-06,0.00023129201,-0.00018531545,-5.205089e-06,-0.0001778938,2.5039546e-05,7.1460418e-06,3.050503e-06,9.721047e-05,1.1537332e-05,-5.7134724e-08,-3.3896074e-05,-7.4911577e-06,-6.803096e-06,-0.00016609138,2.6205033e-05,2.0134545e-05,-2.1011381e-05,7.2320995e-06,-4.4215147e-05,7.918326e-06,9.651547e-05,5.5552573e-06,-9.918592e-05,-0.00036669106,-0.00016958726,3.4794975e-06,-1.4172379e-06,-1.6100024e-05,2.9299546e-05,-9.913533e-07,3.3358287e-05,-3.19757e-06,0.00035801355,3.580131e-05,8.746788e-07,-9.411874e-06,-0.00016391618,6.9780595e-05,0.00019725681,0.00042169358,0.00023313236,2.5385316e-05,-1.8069832e-06,5.033267e-06,-0.00029659693,8.7688226e-05,-6.787177e-06,-2.3797136e-06,0.00040723383,-0.00093564054,7.5376543e-06,-0.00014593021,7.646342e-05,0.000235961,-9.090312e-07,-0.00032408567,-1.3573602e-06,-0.00012635917,-0.00021066063,6.685231e-05,0.000431323,3.807937e-05,1.1144016e-05,-6.5695964e-08,-8.651705e-05,8.93295e-05,6.2648394e-07,2.737158e-06,-6.569581e-05,0.0003799604,0.0002990781,0.00012951285,-9.2907874e-07,5.622694e-06,-0.00030215003,-1.8537435e-06,4.2282677e-06,1.3729122e-05,-2.9043596e-05,5.893085e-06,-0.00023095706,9.9971685e-06,-4.1895135e-05,0.00013272841,4.4662047e-05,-2.7783728e-05,-0.000100278674,-0.00026700975,0.0001813552,1.2190384e-06,1.7470902e-05,0.00032611573,7.743874e-05,-5.759294e-06,Donor:HBsRE_31
1.8694564e-05,-8.617643e-07,7.723061e-06,-2.9621255e-05,0.0001927203,3.788057e-07,-0.00032655985,6.29416e-06,-0.0004918118,1.2293802e-06,-0.00012521438,1.1904694e-05,-0.00023076225,3.0201063e-06,-3.507404e-05,-6.1777966e-05,8.735325e-05,-0.00021451614,-0.00012035506,-0.00010341018,0.00024871057,-0.0002766758,-8.8533e-05,-0.0003131307,-0.0002737463,2.3917238e-07,1.6125437e-05,4.8953458e-05,-0.00013512655,0.00017748192,-2.5451822e-05,0.00052640296,-3.1536085e-05,-4.9499313e-06,-0.00029540298,-0.00024125919,-0.00012441812,-0.00062657887,-0.00012417993,4.2343345e-05,-0.00023372407,0.00021282242,-0.00024300035,-0.00020009368,-0.00023471813,5.6653498e-05,1.726065e-06,2.6184078e-05,6.74186e-05,0.00022195528,-1.26915265e-05,0.00018634027,-3.8209484e-05,-9.695925e-06,-1.6563108e-05,1.9938481e-05,8.100132e-06,1.4196925e-05,-0.00024097774,-4.824916e-06,6.351573e-07,-6.788012e-05,0.00015424777,8.235246e-05,9.002001e-06,9.310026e-05,2.7892727e-05,6.875523e-05,0.00023999372,5.7208672e-05,-9.846045e-05,3.3434671e-06,-0.0002173333,-8.033095e-05,3.4708504e-05,-3.8576516e-05,3.473512e-07,7.887327e-06,-2.8360877e-05,1.5070347e-05,1.1897793e-06,-0.00025516454,0.00024612303,1.5118999e-05,6.3629577e-06,0.00010386786,-8.493235e-05,0.00017423969,-4.9982333e-05,-0.00013869452,0.0002202777,0.00018037648,-0.0001691778,-3.2155585e-05,-2.072933e-05,-4.8521406e-06,-1.0386601e-05,-1.1906502e-06,-0.00013450446,-0.000114797425,-0.000646406,2.4389744e-06,1.0634798e-05,-0.00024244728,2.3636709e-07,2.5610314e-05,0.00010385552,5.4951515e-06,-4.3362934e-06,-0.00077171926,8.973434e-05,-0.00027176668,-0.00015408381,5.6128818e-05,7.849626e-05,0.00011010466,-0.00021389792,7.703547e-06,-5.0786864e-05,0.00024975356,-0.0005295915,2.405879e-05,-7.062884e-05,-6.2587955e-05,0.00015112861,4.9574987e-06,-6.977764e-06,-0.00021150873,-0.0002771118,0.00020477959,5.2664644e-05,-8.0748076e-05,-7.0666215e-06,-3.0887654e-07,0.00039314025,-0.00018266788,7.067338e-06,-1.883382e-05,-5.9767463e-05,-0.00025755423,7.2385534e-05,-0.00019929488,6.954488e-05,-0.00077992416,-8.264634e-05,-6.170796e-06,-0.00023512376,3.9038885e-05,-1.6681792e-05,-0.00016821468,-7.795622e-06,-0.00035326867,-0.00021235777,-0.00010521468,Donor:HBsRE_32
-0.00018789829,8.175146e-05,4.203958e-06,-2.6277785e-05,4.460554e-06,-1.3311683e-05,2.8128168e-05,-8.684184e-05,-2.2327342e-05,2.7186976e-05,9.531683e-07,-1.8762878e-06,1.0677304e-05,-0.0010143707,0.00023091341,-1.2640852e-05,1.6820002e-06,-3.3006105e-05,-1.7596018e-05,0.0007714179,-9.378336e-05,6.19043e-05,0.00015459955,1.2205534e-05,-1.6396714e-05,-1.7146209e-05,-2.2225428e-05,-5.682612e-06,-0.00021339464,0.000120176584,-9.429648e-05,-4.3281656e-05,0.00021101008,0.00023611226,-0.0019905248,-0.000116927375,2.329596e-06,-0.001537884,2.3671382e-05,2.77711e-05,-1.51745435e-05,7.1677678e-06,0.00012492345,-2.790577e-05,-4.00556e-05,1.9966084e-05,3.2646887e-05,-2.6376973e-05,-2.2870601e-05,-2.2505968e-05,0.00034689167,-0.00017672515,-4.4020994e-06,-0.000112205016,-5.809346e-05,-2.779391e-05,-2.0739999e-05,5.0027943e-06,0.00027513065,-6.065879e-06,1.3301964e-05,1.0722026e-05,-0.00028797213,0.0001755308,-3.9683086e-06,3.7068346e-06,-7.741391e-05,0.001514439,-1.527444e-05,0.00010315125,1.1897166e-05,-3.529456e-05,-5.1651245e-05,-8.355753e-06,-2.8704724e-05,-8.7185894e-05,2.9079407e-05,3.187396e-05,1.1815727e-05,3.447094e-05,-0.00013856338,-4.4759686e-06,-3.203199e-05,-6.1003662e-05,-1.1917349e-05,2.3155297e-05,-0.00011203954,0.001089044,0.00017156095,-0.001124565,2.6017165e-06,-3.5447993e-05,1.325306e-05,9.9079065e-05,-7.915202e-05,-1.725453e-05,-4.14632e-06,-6.6088533e-06,0.0003987176,0.00031361074,-0.002129702,-0.00020282953,-2.0268533e-05,4.3459986e-05,0.00011313289,-6.544171e-05,-0.0001634201,1.1603681e-05,-6.667766e-05,0.00015811,3.8441834e-05,3.3730048e-05,7.1213303e-06,-2.8785671e-05,-1.698037e-05,9.1470596e-05,1.9213461e-05,0.00020130539,2.9045403e-05,-1.4363507e-05,7.5918615e-05,3.3490236e-05,0.00027795378,-0.000370291,8.247553e-06,1.27416015e-05,-0.00017941883,2.906664e-05,3.0536296e-05,0.0005491281,0.00056902197,1.3956299e-05,1.0666632e-05,0.00023853958,-0.00011811258,-0.00016782533,-0.0003543069,-2.183291e-05,-4.2996857e-05,-2.6506696e-05,-1.6251466e-05,0.00013902187,-0.00010327655,-0.0017823331,-2.130018e-05,0.00018276053,-0.00023343295,-0.00017878787,1.1908866e-05,5.0825706e-06,-2.618734e-05,-1.5569594e-05,-4.8452184e-06,-8.627366e-05,Donor:HBsRE_33
1.9210393e-05,3.0268995e-05,-0.0001510372,5.8739577e-05,-9.864385e-06,2.75676e-05,-5.7929383e-06,-3.2234377e-05,1.6638835e-06,8.772637e-07,1.2136079e-05,2.5408532e-05,-9.0385965e-06,-0.0001783605,-4.0809e-06,0.00011105237,-1.6678932e-05,-0.00010992369,3.1163538e-05,-7.742324e-06,2.6289394e-05,1.1122577e-05,2.453698e-06,3.349356e-05,1.8505752e-06,-9.232361e-07,2.5674462e-05,3.4308144e-07,-7.93928e-05,8.1116e-05,4.3201867e-06,2.5810486e-06,4.7874742e-05,2.879362e-05,0.00026982627,0.00024776958,-5.8200403e-05,0.00038525293,-0.00010321958,3.5766556e-05,-1.6969758e-05,-8.084704e-06,-2.7101803e-05,7.5701406e-05,-1.3310731e-05,-5.0957583e-06,-8.081784e-06,-2.6311038e-05,2.7984859e-06,4.463618e-06,1.6517233e-05,1.3280462e-06,2.5209214e-05,-4.3498267e-06,-0.00013563698,-0.00016228901,1.7283124e-05,8.948196e-05,-6.191453e-06,3.1308078e-05,7.527658e-06,-6.5114946e-05,-8.6766624e-05,2.6067307e-06,-0.00016272419,7.3590345e-06,-0.0002457909,-7.2557654e-05,8.930872e-06,2.2290988e-05,2.1469737e-07,-0.00019536869,2.3719494e-05,-2.7061755e-05,-9.594578e-05,-9.11889e-06,-8.6241525e-06,-3.852106e-05,-3.151406e-06,1.6474717e-06,-1.3080066e-08,-0.00021871277,-1.7130195e-06,-8.559361e-05,2.1858987e-05,2.8228209e-05,3.1523805e-07,-0.00044687986,-3.0389074e-05,-0.00011486185,-9.1865484e-05,-4.5290177e-05,-0.00016015585,1.9023679e-06,-8.315039e-06,1.9690911e-05,6.483108e-06,6.303986e-05,-9.693438e-05,-9.469817e-05,0.00017648077,7.167988e-07,2.4571966e-05,2.1761745e-05,4.4725066e-06,-9.3227806e-07,-4.870643e-07,3.9047472e-07,-0.00019033146,-0.0018873747,-2.1002785e-05,4.795981e-05,6.6550583e-06,-3.1251525e-06,-0.0001348874,-3.2713302e-05,3.210158e-05,-0.00017130413,-1.2842624e-05,3.521727e-05,-4.6019883e-05,2.478311e-05,-0.0001043367,-9.2779184e-05,2.0264897e-05,6.725278e-05,0.0001545079,7.433365e-05,2.2716165e-05,-0.00013922897,7.6120386e-06,-3.9950914e-06,-5.2592225e-07,-2.1959808e-05,-0.00010579174,6.593459e-05,-1.5004287e-06,-1.0323882e-05,2.5710867e-06,-1.0738526e-05,1.3669578e-06,-0.00015677432,-2.2320144e-05,0.00044494233,-1.0749993e-05,-7.950419e-06,3.2401415e-05,1.02725544e-07,-3.825542e-06,-0.00017373687,2.5427658e-05,4.5166797e-07,4.7766353e-05,-0.00010443097,Donor:HBsRE_34
1.5573718e-05,9.4585e-06,-5.4038605e-07,1.1953879e-06,9.732017e-06,0.00025515634,7.331686e-06,0.0008270505,5.4855645e-05,1.7725596e-07,-2.599777e-05,-1.417671e-06,2.05852e-06,-8.124558e-05,8.9458854e-07,-2.1322276e-07,1.0798569e-07,-4.38175e-05,-4.7932315e-07,-1.578285e-05,-9.073264e-05,2.713653e-06,-1.5820859e-06,-3.6163112e-07,-0.000103192164,0.00016722514,-8.542733e-06,-2.1458325e-07,1.1495963e-06,1.2053478e-05,2.3128205e-05,0.00012890477,4.9498553e-06,-2.5676696e-05,-0.00029413225,-3.1614378e-05,2.7194864e-07,-0.0004979877,6.0928538e-05,-3.7518396e-07,9.52615e-06,0.0007895456,9.1400834e-05,-2.1556014e-06,-1.2195163e-07,9.346051e-06,-4.08455e-06,-8.258481e-07,-6.8600576e-07,2.648756e-06,-1.9978896e-07,7.688254e-05,9.540744e-06,0.00013580841,-4.139073e-06,-2.1887456e-06,-5.762422e-08,1.21972e-07,-4.9769824e-06,-2.5791812e-06,-3.4881875e-06,-5.4489146e-06,-7.706643e-05,-8.8593115e-06,-1.65975e-05,6.9100424e-05,3.638818e-05,6.1169453e-06,1.8512877e-05,-1.8324521e-05,5.479071e-09,1.738092e-06,-6.240935e-05,4.049108e-07,-8.4681636e-07,2.3123494e-05,4.9124297e-05,-0.00014706963,6.486592e-05,-9.366842e-05,0.0007677145,0.000511669,-4.271935e-05,-3.7944358e-06,0.00057840365,-4.7172918e-05,6.5868558e-06,-0.00016700277,1.0140492e-06,0.00065390987,7.243486e-05,2.4317667e-06,-1.4432467e-05,-1.6122493e-06,4.7709573e-06,1.7272734e-05,-1.6858796e-05,-7.900988e-05,-8.567235e-06,-9.490865e-06,-0.00061670406,4.6550934e-07,2.4680672e-05,-2.0262105e-06,5.4859515e-06,-6.364679e-06,-0.00010602587,-1.702947e-06,1.6261672e-05,-0.0007099592,-0.00018211958,2.6960188e-07,1.3055289e-06,-6.4328124e-06,-4.42297e-06,1.010542e-05,2.9233795e-06,4.8071005e-08,-0.0046876003,-1.2585729e-05,-4.9184488e-05,-8.49823e-07,1.5309923e-05,1.8779555e-06,-2.1317064e-06,-2.9419336e-06,2.9189582e-08,2.2427618e-07,1.4828885e-07,-4.0174902e-07,-8.765818e-06,-1.7385868e-05,-0.0001798759,-7.32698e-05,-2.723364e-05,7.698952e-06,1.2573548e-05,-0.00012339899,0.00016511045,1.1624394e-05,-4.0583726e-07,3.262047e-05,6.2497593e-06,0.0005254549,-1.4943838e-06,7.2994267e-06,2.711533e-06,6.9461035e-05,1.7419421e-07,1.6914419e-05,-2.6424425e-06,-5.874698e-06,0.00049768685,6.7792257e-06,Donor:HBsRE_35
-5.134362e-05,0.0003574997,-6.511724e-05,0.0017638312,0.000110239096,-0.0011948997,0.00044461773,-0.00019279461,-0.00017054462,-0.0007217991,5.2472613e-05,0.0007290481,-4.028596e-05,-0.00019121436,0.0010958089,-0.0005629743,0.001935142,0.00010652931,3.3979704e-05,2.0912801e-05,0.00042484867,-0.0008047225,0.0001842325,0.00042554963,0.000385946,-7.027333e-05,-0.00010058248,0.0004917823,7.0094124e-05,0.00044390393,7.0947e-05,-8.258108e-05,-0.00016798488,-6.41474e-05,-0.0003968068,0.00011791327,0.0004876147,-0.0007010716,-0.0004823301,0.0010193294,-5.515317e-06,0.0008804092,0.0016839583,0.00023001521,6.871037e-05,0.00032241823,0.00045163688,-0.00012230517,0.000234139,-0.00056841463,-0.00026325203,0.001248526,-3.63734e-05,3.0071282e-05,-0.0011269149,-0.00042925737,-0.00030931883,0.0016490639,0.00043398526,1.6656179e-05,0.00075525284,0.00085560913,0.00010155774,0.000238019,0.00048116595,-0.00023831555,2.9040542e-05,-1.0988205e-05,0.00019326629,-0.00018638249,0.0004389972,5.4311917e-05,4.0564348e-05,-0.00020502548,7.206618e-05,3.0336743e-05,-0.00023026209,-4.6157988e-05,2.2198503e-05,2.7859112e-05,-0.00027896545,-0.00017924288,-0.0014752022,2.8738128e-05,-0.0016996939,-0.00033190357,0.0009480607,6.935092e-05,-3.2128806e-05,-4.4433127e-06,0.00053451303,5.3889304e-05,0.00079934194,-3.4143086e-05,0.00029482285,0.00084572006,-0.0013035698,0.0019059355,0.0016482797,-0.00036673588,-0.0010418063,-2.5961363e-05,1.9435169e-05,6.535043e-05,3.5570676e-05,6.9951384e-05,0.00027357854,0.0010691009,9.215258e-05,-0.00027905777,0.0003301644,-0.00056175055,0.0012554702,6.487214e-05,0.0006490363,0.00092520344,2.9174927e-05,-5.2595537e-05,0.0016694181,0.00034541107,0.0015602413,8.101152e-05,8.941015e-05,9.538711e-05,-3.5499797e-05,-0.0007808512,5.706176e-05,0.0002156458,-0.001766032,3.5601857e-05,-6.434553e-05,-0.000117908035,7.58492e-05,0.00013059922,2.1501857e-05,-0.00037535984,0.00042897786,5.101662e-06,-0.00023388371,0.0011431526,0.0003593041,0.00033627526,-9.440464e-05,-0.001098439,-1.4799063e-05,-1.8695559e-05,-5.5385375e-05,-0.00027439022,0.00080793235,-8.729336e-06,-0.0003148676,-0.00026161032,-0.0010130182,8.247146e-05,Donor:HBsRE_36
-1.6994765e-05,-0.00017389258,3.6074875e-05,0.00016080162,5.990435e-06,-2.1140662e-05,2.3797415e-05,4.607229e-05,-3.9790325e-06,-0.00031851657,-1.2988437e-05,-2.1577827e-05,3.3616274e-05,-9.4544004e-05,1.3273827e-05,-5.3843014e-05,-4.375608e-06,3.642376e-05,9.2549335e-06,-1.4554209e-05,-0.0003052521,7.4623067e-06,0.00024825404,-1.0903433e-05,3.723825e-05,-4.0136506e-06,2.5711264e-05,4.895084e-07,3.0919382e-06,-4.6697373e-06,-1.0643546e-05,-2.4174624e-05,-4.4847744e-07,-0.00038070296,0.00037618863,-5.1566338e-05,-1.0328372e-06,6.76116e-05,0.00021657058,-3.311671e-06,-2.5071748e-05,3.756201e-05,-2.8212022e-05,-9.404749e-05,1.0086123e-07,-3.4640536e-06,-0.00022261459,1.2119195e-05,-0.0005229187,4.725336e-06,-1.654325e-05,4.716937e-05,3.995829e-05,8.749467e-06,-0.00028846975,-0.00022200725,8.674099e-06,-1.8694926e-05,3.3884633e-06,1.1659214e-05,1.1770024e-05,3.9139184e-05,0.00027542075,2.54727e-05,2.241904e-05,-3.1346575e-05,3.0260764e-05,8.041174e-06,-2.200827e-06,0.00026075248,2.6445828e-06,-0.0002823656,-0.00025328898,3.4625704e-05,0.00028333926,-0.00038077563,3.3198755e-06,-1.2145616e-05,0.00023381528,0.00027024714,1.6143686e-05,2.672208e-05,6.818033e-07,1.2838461e-05,-8.120472e-06,-7.566968e-06,4.0058647e-05,-0.00032565347,-1.6151853e-05,5.1308834e-06,1.1497459e-05,0.00035536682,0.0003471422,4.5500013e-07,6.105389e-05,-0.000116750336,-1.954406e-06,-0.00013201359,-4.9019686e-06,-1.1516978e-05,-0.0011416641,-1.738559e-05,3.7520545e-06,7.2720586e-06,-2.102176e-05,-0.00033784268,9.295993e-05,-2.5239353e-05,-0.00010885912,-0.0002713254,-0.0005261454,4.057509e-05,4.2916476e-05,-8.848512e-06,-3.1575044e-05,2.92351e-05,4.481136e-05,-1.0346548e-06,-2.4523206e-05,0.00014126669,-2.9581935e-05,-1.7401268e-06,1.304441e-05,5.7566467e-05,-6.151272e-05,-9.970871e-05,-3.7825744e-06,-2.0437055e-05,-1.5666039e-05,-8.025395e-06,5.2149863e-07,6.174099e-05,-5.9544996e-06,4.0073406e-05,0.00015258664,-6.7580266e-05,2.1072714e-07,-0.00018865537,0.00023921329,0.00031180336,5.2500227e-06,2.6214893e-05,-7.1480595e-06,-0.0005230917,-0.00033228702,-0.0015528296,-0.0002885038,-8.700192e-05,3.5976063e-05,-5.125418e-05,-1.321762e-05,2.5521144e-06,4.349223e-05,4.5478246e-06,Donor:HBsRE_37
-5.3837566e-06,-0.0004089384,-0.00055321585,-2.105118e-05,0.00044787547,-0.00043799428,-0.00045407997,-1.4994816e-06,-4.036261e-05,7.9333455e-05,6.292418e-06,-2.9900617e-05,-3.2499665e-06,-0.00035345988,-0.00014241226,1.288139e-05,6.5007407e-06,0.00056290143,0.00043637364,1.7576178e-05,-9.1168e-05,-0.00023412348,2.4753892e-06,0.00035401792,0.00050104427,-2.9125588e-06,3.067002e-05,-9.374877e-05,0.0005014285,-0.00016822532,2.0958744e-06,0.00019056267,0.0003339276,-0.00044434093,-3.1264506e-05,-0.00025085497,8.2296545e-05,3.4964447e-05,7.952068e-05,3.7161473e-05,0.00048292865,1.4326287e-06,0.00028984103,-3.5741155e-05,0.00039348193,-6.5271495e-05,0.00044676632,-1.649282e-05,9.770332e-05,6.413544e-05,0.00015618272,-2.9027726e-06,-1.2148741e-05,-2.0468156e-05,-1.6625453e-06,-0.0006237921,3.7145946e-05,-0.0007660693,4.8474158e-05,0.0003529242,3.5241887e-05,1.0205443e-05,0.0002546353,-0.0005901345,-5.0202958e-05,-5.5837727e-06,0.00022654292,5.1958446e-05,-2.7448688e-05,-4.8454913e-05,0.0024269023,-1.7963993e-07,-0.00022768705,-2.455242e-05,-0.0003494056,-0.00032041103,0.0016674458,-7.246367e-05,0.0004602682,-1.6028851e-05,0.00035460707,0.00047116712,-5.908925e-05,-3.200019e-05,-0.00010793148,-4.3672782e-07,-1.9399004e-05,6.419755e-05,-6.608943e-06,5.1245984e-06,-7.017556e-06,-0.0001963247,-0.00014247898,2.6402274e-06,9.502533e-06,3.3036874e-06,-0.00086095184,0.0005960804,4.477589e-05,0.00033561076,6.8534806e-05,1.9413632e-05,0.00012681424,0.00031336874,-0.00012067284,4.8094025e-05,-0.00039756118,-0.00033908634,-0.00062550337,-0.00073606276,6.0014958e-05,-1.2552695e-05,-1.8348572e-05,-0.00033319075,0.00019063239,3.950772e-05,0.00023825193,0.0004469384,-4.015644e-05,0.00046899324,0.00023115764,0.000331603,-2.4062294e-05,-1.0683565e-05,0.00036905,-6.523233e-06,-5.1501866e-07,0.00030186787,-6.082159e-05,6.419779e-06,0.00051702175,2.3099874e-05,-0.00011705267,-0.00028451646,2.6282909e-05,-1.3751663e-05,-0.00030357693,-1.3132991e-05,-0.0002648552,-0.00067210704,-6.6775225e-05,4.477928e-05,2.1275539e-05,0.00012797878,8.27772e-05,2.6161613e-06,-0.00040829476,-3.3415567e-06,2.7397087e-05,0.0004550905,-0.0002997866,2.3464663e-06,0.00016470303,6.550384e-05,Donor:HBsRE_38
-0.0004250541,4.3616296e-06,-2.8090726e-06,0.00037724018,-0.00030156103,0.00015869249,-0.00018864202,0.00032547463,-0.00017741999,5.236551e-05,1.4687891e-05,-5.2563762e-05,0.0001791044,2.166508e-05,-0.000542108,-0.0020709669,8.696994e-05,0.00026516666,-0.00031798054,-9.38791e-05,1.2160595e-05,0.00017655206,0.00029819258,0.0001612027,0.0002572074,4.4594366e-05,-7.719519e-06,-0.00016001619,4.626609e-06,-0.000105260144,-1.7261941e-07,-0.00033058095,2.235747e-05,-0.00014998889,-0.00010416219,3.1480165e-05,1.792231e-06,-5.3951335e-05,-0.00017567405,3.5133187e-06,-7.5301614e-05,3.7540678e-05,1.5239671e-05,0.0004043974,5.355653e-05,0.00031131742,0.00018368845,-3.5027384e-07,-6.6882916e-07,-1.6785814e-05,6.256848e-05,2.5747493e-05,-4.670325e-05,3.0775802e-05,0.00019460588,0.00025206854,-0.00029002893,-4.3554075e-05,0.00021012456,8.982831e-05,7.32663e-05,-1.27116255e-05,-6.7543035e-05,0.00024258147,-0.0030944727,3.7126006e-06,-1.6433594e-05,-0.00014399082,2.9367511e-05,0.00010566807,0.00037467567,5.1861283e-05,-6.603779e-05,0.00016114103,-8.450335e-05,5.0544964e-05,-0.00034457675,5.2165142e-05,0.0002103543,-0.00015460873,0.00016811374,0.0003848247,-6.9274524e-06,9.583847e-05,-9.239872e-06,-0.00048612844,-3.0767686e-05,-1.4252951e-05,-0.00044515726,-0.0005457413,-0.00013998136,-0.00026657656,1.9788282e-05,0.00031319662,0.00021691731,0.00017877373,-3.7279475e-05,0.0023389014,-0.00015576718,-0.0005306682,-0.00019033677,6.0348153e-05,-0.0020425539,5.3971293e-05,0.00018808471,4.2232907e-05,2.7925438e-05,-0.00011030434,-0.00015164715,-9.768258e-05,3.8332448e-05,0.00013340394,2.5578724e-05,-0.0002337483,0.00020787,5.0815397e-06,0.00010528589,4.0463434e-05,-5.451998e-05,-0.0001339003,-6.746178e-05,6.791513e-06,-2.1796557e-06,-0.00021648784,5.183769e-05,0.0015416729,-2.1078453e-05,-1.7120397e-05,-0.00011309069,2.7866081e-05,6.55201e-05,3.2747823e-06,-0.0013783879,6.6933676e-06,-0.0015529844,5.213473e-05,-2.537646e-05,0.00012713844,-0.00018915927,-4.182299e-06,-7.083805e-05,-9.704155e-08,0.00030876178,-8.45954e-05,-2.7683839e-06,-1.4464792e-05,0.00016634275,-0.00022511407,5.7637062e-05,-0.0032669017,0.00030209526,0.00010940578,2.7413912e-06,0.00014122552,Donor:HBsRE_39
-1.4187116e-05,-7.739423e-06,-2.7433805e-06,0.00011972047,1.6377045e-06,1.8074625e-05,1.781518e-05,6.578716e-07,2.1020702e-05,1.0052854e-05,5.0805866e-06,-4.9976312e-05,-5.0833114e-07,-9.277989e-05,-5.493116e-05,-4.1247968e-05,1.3532604e-05,3.0620813e-05,1.8708886e-05,-0.000101280544,-1.8229726e-05,2.0742656e-05,-6.1954893e-06,8.750727e-06,1.6924954e-05,-9.091612e-07,-9.65916e-06,-2.0467081e-05,1.6031306e-06,-3.3639694e-06,-6.688466e-07,6.8325055e-05,-0.00030235347,1.6810465e-05,-0.0001308784,1.559012e-05,-3.3560964e-06,0.0003545423,5.706241e-06,-2.7685448e-06,1.0982706e-05,-9.466546e-07,-1.122957e-05,2.0714251e-05,3.5064e-05,-1.5690386e-05,1.5670003e-05,-5.0419367e-06,4.315858e-06,2.0634292e-05,-1.4681859e-05,1.9943986e-05,-9.721989e-06,2.4182415e-05,6.007129e-06,-8.903111e-06,-7.844164e-06,0.00014552324,-0.000101645455,1.7568844e-05,-3.399601e-06,1.8217297e-05,-0.00011719255,-7.1718255e-06,-2.530601e-06,8.682483e-05,-1.9647856e-05,0.00010728439,5.911834e-05,1.3430194e-05,-0.0005483199,1.766961e-05,-3.336396e-05,0.00011810318,1.5626072e-05,1.17224145e-05,-9.109035e-06,1.1599671e-05,2.316706e-05,7.584924e-05,6.0750604e-05,-6.8907207e-06,1.344628e-05,7.355174e-07,-0.0004749108,-1.4146293e-05,-1.958095e-05,0.00017497,6.852141e-05,-0.00016121431,0.00014546576,-3.1394086e-06,-2.4446737e-05,-1.6430911e-05,-1.7254068e-05,8.397847e-06,2.1303147e-05,1.2255803e-05,-3.2460695e-05,-9.761398e-06,0.00032733602,-9.611759e-07,-0.0001145202,-1.3615475e-05,0.0008593227,6.167953e-06,7.698651e-07,3.701855e-05,5.0279516e-05,-0.00012930186,1.2534088e-06,-2.8014756e-05,9.196198e-05,-1.8988369e-05,-3.29717e-06,1.9759382e-06,1.4742916e-05,-7.465258e-05,4.266653e-06,1.8421366e-05,-0.00017129279,1.1862116e-05,-0.00075403106,1.0441653e-05,-3.1096024e-05,3.3928107e-05,-4.442028e-07,7.7078785e-06,6.0809347e-05,-4.288441e-06,8.232777e-05,-4.142961e-05,2.5839114e-05,8.881458e-05,9.29355e-06,6.482602e-05,2.5731477e-05,2.0825744e-05,1.9804085e-05,-3.0056085e-06,1.2232162e-05,0.00012080409,1.6708345e-05,0.00027350528,1.4151591e-05,-4.9992028e-05,-1.7129232e-05,-8.9305824e-05,1.3880681e-05,0.0002578646,-1.8650815e-05,6.0829163e-05,6.0001083e-05,-1.5906365e-07,Donor:HBsRE_4
-0.00016143033,6.6252805e-06,-4.513131e-06,1.4555417e-05,-0.00030361422,6.863083e-06,-7.069897e-05,2.2901602e-06,-2.1223821e-05,9.842182e-06,-8.3539366e-05,-4.105206e-05,1.2689922e-05,7.186985e-05,-3.6478e-05,0.0002420933,-1.1482737e-05,5.5246357e-05,-8.430454e-05,-0.0006558904,0.00012250918,8.244827e-06,1.6313285e-05,0.00087688124,4.841699e-05,-2.9262808e-05,6.398632e-05,-3.6842146e-05,-0.0026182127,-1.9823215e-06,-1.1990728e-05,0.00015715757,0.00021112544,-0.00010606059,0.0008312039,-0.00015679037,-6.2986524e-05,0.00087322836,-5.8676155e-06,-0.00018573701,-0.000324945,8.405862e-05,-0.00010037661,-0.00027713954,6.0892235e-05,5.7265745e-05,4.438736e-06,-0.00010207546,-1.14968825e-05,3.510089e-06,2.8238812e-05,-3.972659e-05,1.0819847e-05,0.0011199106,-0.00013191362,-3.7475715e-05,-2.2484299e-05,-3.2145174e-06,5.6668876e-05,-0.000114661445,1.3397219e-05,0.00015910964,7.0011076e-05,-1.7529359e-05,-0.00015100904,-0.00016276991,-4.117618e-05,-0.0006321529,-0.00040100224,-7.384821e-06,2.0945907e-05,-0.00016105679,-9.9876794e-05,2.3835839e-05,0.0001163964,-7.966229e-06,7.555814e-05,1.8519502e-06,1.3880799e-06,0.00045990694,-4.386336e-06,9.530847e-06,-0.00024258488,-0.00012910696,6.153372e-05,-0.00015135655,9.910609e-05,-0.0010056995,9.449295e-06,0.0006390547,-3.2982848e-06,7.167839e-05,4.5589236e-06,0.00026503485,-8.4334955e-05,8.048397e-06,-0.0024710663,-8.4892716e-05,0.0029092403,-4.1628544e-05,0.00014950102,0.00041836745,0.00014465368,-0.00012974913,0.00020530494,-0.000113034526,-9.1277674e-05,0.0010581611,-3.5633818e-06,-0.00027960216,-0.00015132084,0.00020563981,0.00028140246,0.0010401371,-0.00029025227,-5.998931e-05,-2.922677e-05,-0.0001390053,-2.9224286e-05,-7.3701594e-05,-0.000103277074,-0.00024365679,0.00041762023,-9.9521676e-05,-8.292378e-05,-7.458917e-05,-3.5837682e-05,6.0410606e-05,-3.9152733e-06,0.0001074955,6.271503e-05,1.7272987e-05,-0.00015340222,-5.09975e-05,-0.00025678906,5.565216e-06,-9.378228e-05,0.0001419129,-2.257528e-05,-4.7741276e-05,-1.4227034e-05,-0.0001048651,2.7336646e-05,0.00071041414,-6.635983e-05,-0.00015717711,0.00014203275,9.45324e-05,-0.0001167437,8.4252875e-05,-0.00015577278,1.6274631e-05,-0.00012617173,0.00097422634,Donor:HBsRE_40
2.3613172e-06,0.00051935116,-6.738806e-05,-0.00016882352,4.8852007e-06,9.422917e-05,4.818931e-06,-0.0002751842,5.9504182e-05,-1.2082713e-05,-1.8091263e-06,3.9323953e-05,5.2786487e-07,0.00016778738,0.0013049192,0.00014213557,-2.9046664e-06,9.4586634e-05,4.592089e-05,0.000105383064,1.3587161e-05,4.013634e-05,0.00015168042,1.5355157e-05,1.4314896e-05,-1.591449e-05,5.2764037e-05,1.6105356e-06,3.2732755e-06,-3.7684287e-05,-0.00015225627,-0.00019376454,4.201145e-05,-0.000668021,-2.1252325e-05,-0.00045868522,3.5869067e-07,-2.6700336e-06,-0.00013617016,-0.000379922,9.0115645e-06,0.00017531193,-0.0007150986,7.627994e-05,0.0002951288,0.0001449641,1.8141501e-06,-0.00028546996,1.1812111e-05,4.9192036e-05,-3.227286e-05,-0.000102443504,-1.3992109e-06,-5.8399205e-06,1.4803247e-05,2.3840295e-05,-6.742744e-05,0.00014919201,8.8753e-05,2.37283e-06,5.8070036e-05,1.42325725e-05,0.0001871892,5.8244656e-05,1.929335e-05,-7.5206904e-06,-0.000169613,7.5275166e-05,4.447205e-06,0.0002267327,7.88361e-05,4.909596e-05,-1.9112991e-07,8.062467e-06,-9.30625e-06,2.5215984e-05,-4.5468846e-06,2.3525108e-06,-2.1302842e-06,0.00015555102,-4.4960043e-06,0.00015897182,3.1572858e-05,-0.00031842134,5.88437e-06,2.7751992e-05,5.685838e-06,-8.778232e-05,0.0010601085,-0.00021436991,-0.00010295281,-2.78308e-06,-1.4388753e-05,-7.870585e-07,-7.372517e-05,0.00013626626,-1.6153186e-05,-1.367794e-05,-1.3934651e-06,4.208775e-05,-1.3880524e-05,2.3015418e-05,-3.5979603e-05,-0.00020013876,0.0001369678,2.276367e-05,8.924848e-06,-3.8593822e-05,0.00022238516,0.00083371595,9.241467e-06,6.147057e-05,-4.336397e-06,0.00029101016,4.8832622e-05,-1.0492231e-06,6.5311666e-05,3.140473e-05,-6.277967e-06,0.0002840123,6.702037e-06,9.877518e-05,-4.4678254e-06,-0.00013844072,-5.9484068e-05,6.2650484e-05,6.386479e-07,0.000102362865,0.00010673984,7.0696995e-05,-3.7855486e-07,2.3384735e-05,1.0713668e-05,7.987935e-06,-0.00019278468,-2.6194759e-05,-0.00014428984,-0.00012179729,-0.00016056509,-4.2105505e-05,0.00016925753,0.00013399187,5.7926016e-05,2.9527806e-05,1.242217e-05,-4.63405e-06,0.00013557603,0.00013482023,1.3710531e-05,3.2115244e-05,-9.371097e-05,3.770029e-05,-4.4182307e-06,0.00011090317,Donor:HBsRE_41
0.00019402105,-8.0681035e-05,1.2092272e-05,-1.8653018e-05,1.33271e-05,-1.712516e-05,-5.6129367e-05,1.882764e-05,-2.2634826e-05,-2.9419307e-05,1.4007182e-05,3.264574e-05,-5.418573e-07,-0.00021291587,-2.0414942e-05,-5.2091145e-05,-1.1929731e-05,-2.747092e-05,-1.8218754e-05,-1.0721901e-05,-3.1871755e-06,-5.2355415e-05,2.2509637e-06,-0.00035011125,-4.6611232e-05,2.0062853e-05,-3.6490168e-05,0.0010172527,-6.834368e-07,3.0950363e-05,-9.9492345e-06,1.4641315e-06,-3.0669817e-05,2.387338e-06,0.00039313122,-6.5339176e-05,-0.00016130283,0.0014607202,-6.604317e-05,-2.441032e-06,-6.901991e-05,1.5083505e-06,1.182979e-05,-1.5345111e-05,-2.765343e-06,-2.190455e-07,1.1749536e-05,-3.2363318e-05,6.204714e-07,-1.4378858e-05,0.00024929346,1.173804e-05,0.00062129967,-2.5412386e-05,-2.7564432e-05,-5.318312e-06,7.321881e-06,0.0002836337,7.554193e-05,3.8267022e-05,-4.1590018e-05,1.9100014e-05,-0.00019892858,2.6737803e-06,4.175491e-05,1.8788965e-05,-8.93338e-05,-1.0425528e-05,1.2497346e-05,-1.1626241e-05,1.7207157e-06,-0.00010573208,3.2672095e-05,-6.056584e-05,0.0002562536,2.8106288e-05,-6.3503394e-05,-1.26511995e-05,-4.071604e-05,2.3926478e-07,1.8380753e-06,-6.947097e-06,5.721694e-05,7.3581174e-07,-8.704731e-06,-2.6105101e-06,-7.641904e-05,-0.0002122922,-0.0003267505,1.7933433e-05,1.568803e-05,8.649016e-05,-3.621839e-05,0.00014284703,-5.3831786e-07,-1.603825e-05,0.0005804568,-2.011887e-05,-8.546738e-07,1.9705001e-05,0.0015222399,1.1680456e-05,-1.01308615e-05,-3.4643112e-06,-1.6555274e-05,-0.0003510321,1.28826205e-05,-3.294723e-05,-0.00021798853,3.5420413e-05,2.0780221e-06,1.9521522e-05,-8.9068475e-05,-3.0027639e-05,6.915704e-05,-0.00014530844,-9.044483e-07,1.8798206e-06,0.00029394592,1.7580844e-06,-4.5275838e-06,9.675952e-06,-2.5999825e-05,3.9197366e-06,-7.6168876e-06,-4.101912e-05,-1.7642851e-05,-3.917796e-06,-2.2737373e-07,8.864644e-06,-0.00010267488,0.0008547347,-3.8550443e-05,6.785202e-05,-9.681745e-05,-4.396197e-05,-8.929665e-05,0.00013331874,-3.6647318e-06,-4.965398e-05,1.7713595e-05,-8.559881e-05,-4.0522e-06,0.0014047096,-6.034588e-06,-8.490931e-06,6.892058e-06,-4.1330395e-06,-8.586198e-05,1.43842635e-05,1.0145369e-05,3.7088208e-05,2.840325e-05,2.3447315e-05,Donor:HBsRE_42
2.424787e-05,1.9961417e-06,0.00041194947,-4.886335e-06,6.6078876e-08,0.00015774074,-3.8622275e-06,1.65669e-05,1.2458728e-06,-1.8269006e-05,-1.6128694e-06,4.4901667e-06,1.666581e-06,1.4225266e-06,1.3388153e-06,1.0228587e-05,-1.3776969e-06,0.00010765681,-2.9581493e-06,-1.2159701e-07,1.050028e-05,5.9506096e-06,0.00034574157,-3.7197512e-06,-2.854545e-07,-8.0176935e-05,-8.237369e-05,1.8313824e-05,1.6497332e-05,5.74822e-07,0.00045247824,1.4975626e-06,3.7533238e-07,0.0006701226,-6.616716e-05,-2.206167e-05,-1.4290712e-05,-0.00018398098,5.842691e-05,2.163988e-06,7.2708985e-06,-7.3384085e-06,-2.950024e-05,8.612633e-05,-1.0820047e-06,-4.5125444e-06,-3.336684e-06,1.8190267e-05,7.3244744e-05,-9.022252e-05,1.0741182e-05,1.5408708e-07,-0.00013111372,1.7249813e-05,1.0741656e-07,2.2841286e-05,1.7283925e-05,3.2087103e-06,-1.6673657e-07,-2.0237037e-06,1.8463681e-05,-0.00015333387,-1.9400535e-05,-1.478836e-05,2.4330908e-05,-9.6009235e-06,-4.086232e-05,1.0275552e-06,-0.0003791964,0.00074403244,1.0391645e-05,9.831576e-06,1.3693844e-06,1.8862878e-06,-1.1098689e-05,5.2612445e-06,1.1556838e-06,4.6450373e-07,-3.396228e-07,-2.6653325e-07,-4.2346716e-07,2.0631489e-05,-8.537824e-05,1.474312e-07,0.00020666693,3.0695956e-05,-1.5397472e-05,1.2147442e-05,-1.0273366e-05,7.285583e-07,1.4276073e-06,0.00078072044,-7.789444e-07,7.6552055e-08,-1.5749281e-06,3.2130224e-06,4.761508e-06,5.196273e-07,2.0196803e-05,-1.0033079e-05,-0.00015428293,1.0795011e-05,4.933327e-06,0.00072952284,-5.4432094e-06,1.8217613e-06,4.865523e-06,3.8484035e-07,0.00031800958,-0.00016231595,-1.051886e-05,-9.3006355e-07,-5.6251403e-05,2.0936181e-06,0.00022729537,2.5528258e-05,2.5144138e-07,8.230665e-06,7.495522e-05,-3.8696248e-07,6.410584e-05,0.00016976465,0.00034067375,3.4004368e-06,-1.8019948e-06,-1.9223263e-07,0.00036162234,-3.7960216e-08,0.00014731838,-1.6326916e-06,0.00010236927,4.584141e-05,-2.3850516e-05,-2.8499479e-05,-3.228287e-07,3.7629793e-06,1.5001226e-05,-1.2610961e-05,2.6760767e-05,2.2671304e-06,-0.00014516267,0.0006465373,1.2377412e-05,-0.0002307789,0.000769904,-9.0847243e-07,1.6174106e-06,-2.7993548e-05,-2.5355412e-05,2.684354e-06,-1.0782464e-06,-8.135708e-08,1.17566e-06,0.00027014493,Donor:HBsRE_43
-8.869207e-06,4.3606597e-05,2.3547177e-06,2.7444482e-06,2.5364843e-06,-6.331935e-06,2.781898e-05,1.1196564e-06,4.6136407e-05,-8.799985e-06,-6.2644955e-05,-4.3559838e-05,-2.5347583e-05,3.6021754e-07,-6.8156824e-06,-4.2375424e-07,2.2460656e-06,3.141454e-05,2.8972238e-06,-1.5125949e-05,3.1560173e-06,-2.3213557e-05,-2.4430734e-05,3.3041247e-06,-0.00034502454,2.430407e-05,-0.00050883373,6.3235355e-05,-4.067544e-05,-4.9931263e-05,-1.2371053e-06,1.2903156e-06,-1.2253807e-05,-7.9812276e-07,-0.0003224094,-4.3368095e-06,-2.4331384e-06,-0.00017794583,-4.687962e-05,1.9327119e-05,-2.385494e-05,-9.368822e-06,-4.110897e-05,-3.0193492e-05,5.0405593e-05,-1.3022402e-06,-9.8150995e-06,-8.9008165e-07,-4.4362663e-05,7.627033e-06,-1.8730227e-05,3.4551015e-06,3.181455e-05,-9.369527e-06,6.076288e-06,-4.4846274e-07,6.545733e-06,-4.2602602e-07,-1.7587333e-06,-3.1767548e-05,-2.76049e-05,5.5878054e-06,-2.3856646e-05,-5.1674273e-05,4.2407652e-07,7.873016e-06,-4.4226203e-05,0.00012220192,0.00067234616,3.790983e-05,-5.5247867e-05,-2.3859235e-07,-4.3739574e-06,0.000104399056,1.1360215e-05,-5.936065e-06,-5.2324507e-05,1.8176847e-06,-2.2818956e-07,-8.420406e-06,2.2691179e-06,-5.7685506e-06,2.9143315e-05,3.2194566e-05,-7.904581e-06,-2.7678512e-05,-7.9305855e-06,-1.3209762e-05,1.2266691e-05,-0.00017349662,0.0005534195,-3.26475e-05,-2.4403637e-06,2.8033339e-05,1.6393138e-06,-7.2645307e-06,-5.557732e-05,-8.934054e-06,3.3003002e-06,2.1886433e-05,-0.000744929,-1.1151157e-06,-6.101965e-06,-1.6589397e-06,-6.131349e-07,-1.6291427e-06,6.3347106e-05,6.1612883e-07,-1.0384709e-06,-0.00011845949,7.2189887e-06,6.529201e-05,7.517926e-05,2.7225285e-06,6.0489572e-05,9.4362167e-07,2.624602e-05,-4.9872706e-06,-1.6478501e-05,3.25214e-06,1.2755953e-06,1.04305e-06,-6.531215e-05,2.1369653e-05,-6.0847583e-06,-3.1862041e-06,-8.6613653e-07,-6.695542e-06,1.3302469e-05,1.28254305e-05,-0.0003153922,7.5659795e-05,3.0327237e-05,4.850568e-06,-2.332761e-05,-6.522434e-06,7.4961977e-06,5.698259e-06,-6.578727e-07,-1.7292665e-05,2.0439813e-05,1.5348227e-05,-5.521021e-06,-0.00067695405,8.2071676e-07,0.00012611497,-3.415672e-05,-4.4146203e-05,-5.3135976e-05,-7.8885324e-07,-1.0043308e-05,9.845468e-06,-0.0001509078,5.3579162e-05,Donor:HBsRE_44
-2.3944922e-06,-2.0377682e-05,-0.0001585184,0.0001499132,-0.00018642811,0.00036652794,0.00012589601,0.0002076164,0.00022537453,-0.00024516147,-0.00020629032,-0.00015383276,-0.00015587562,-0.00021142737,0.0002930682,5.0449344e-05,1.6302498e-06,0.00020791864,0.00020623243,-0.00096362806,-0.0001747125,0.00020732475,-0.00015425197,-0.0001779251,0.00020240314,-0.00020874215,-0.00021950903,2.2843344e-06,9.361746e-05,-0.00016488823,-7.654891e-06,-0.00013199262,-0.00020970128,0.0004983439,-0.0018773217,-0.00019978246,0.0007405786,-0.00042016624,0.00023180962,1.9709621e-05,-0.0010846647,-0.0014227825,9.433912e-05,9.4432275e-05,0.0005026248,-0.00017307396,-0.00022639024,0.00018328552,-0.00020822414,6.951842e-05,-0.00092363625,-0.0001904108,7.785936e-05,1.6704831e-05,1.3486611e-05,-0.00011044078,0.00074037584,8.054045e-05,0.000847589,-0.00021939552,0.00013965169,0.00013103957,-0.0001395305,0.00033960235,3.1569696e-06,0.00039820766,-3.903006e-05,0.00012159435,-4.1915013e-05,-0.00017507587,-0.000115894654,1.8363295e-05,-0.00013270386,0.00018089986,-0.00024448548,-0.00019776831,-4.262341e-05,0.0011906662,0.00030115826,-0.0004051095,-8.9087473e-07,-0.00013728961,3.718664e-05,-0.0010577396,-9.161904e-05,-2.767638e-06,1.6523778e-06,8.009604e-05,-9.095619e-05,-0.0029068931,0.00026767602,7.838069e-05,5.7390942e-05,-4.4705466e-05,7.585689e-05,-2.9489993e-05,-6.8709836e-05,0.00031196323,-1.06861435e-05,-0.00027037773,-0.00084698515,-6.947821e-05,-0.0001235184,0.000899562,0.00018420606,4.0400428e-05,-0.00017967194,-6.461731e-07,0.00031889623,-0.0012667549,-0.00014986744,-0.0001761879,-0.00013615162,0.00020501821,0.00028733988,0.000113420196,0.0010612181,-9.243065e-05,0.00026243,0.0001555378,0.0002730642,-1.1971629e-05,0.00025440968,0.00016444734,-0.00015896077,1.5967365e-05,0.00044987747,-0.00018831925,0.0001578441,-0.00019548791,-4.9433853e-05,0.0003198525,0.00014829387,0.00018306641,-2.2503344e-05,0.00022568826,-0.0001303072,-0.000897361,0.00010218678,7.879166e-05,8.3047344e-05,-0.00027576488,0.00041995858,-0.0012846283,2.7163995e-05,-0.00010203328,-0.00020352806,0.0008559774,-9.337499e-05,0.00016057743,-0.0002257856,0.00015464898,2.215295e-05,-0.0001311431,Donor:HBsRE_45
0.0003323889,0.00017688672,0.0003765815,-0.00074702577,0.00015692951,0.00030525905,-0.00012890286,6.4147434e-06,0.0002840469,9.3223774e-05,-1.5847603e-05,0.00015235889,0.00010210774,-0.00025239636,0.000843397,0.00015794167,0.00028024978,0.0003299615,-0.00011648862,-0.0002241449,-0.00043240772,0.00026715596,0.00012888451,-0.0006814826,-0.0001163244,-5.0809533e-05,0.00010315781,0.00027072438,0.0010654412,0.00022537206,0.0003516681,0.0002760443,8.928285e-05,0.00024149951,-0.0013911373,0.00043224194,0.00027912334,-0.0016577678,0.00018656049,-0.0003502601,9.2945666e-05,2.7111915e-05,-4.8610804e-05,0.0005626312,-0.00015440864,0.00016772498,0.0002704263,-4.3899545e-05,-0.0009595734,-8.080734e-06,-0.0001818592,0.00023710432,-7.82012e-06,8.738228e-05,0.00017111644,-0.0009592177,0.00022696928,-0.00074245903,-0.00025424318,0.00022717814,-6.721682e-05,4.0096784e-06,0.00022700982,0.00035957908,0.0002775384,-0.00018771767,-6.9982976e-05,0.00058736576,-1.6232478e-05,0.0009893975,-8.124305e-05,0.0009818965,-2.3565484e-05,8.524482e-05,-2.9011222e-05,-4.0845753e-05,-5.9263566e-06,-8.251247e-05,0.00021744307,0.00034624132,-0.00014757291,0.0003622743,3.8912254e-05,-0.00025058485,0.00012349745,-6.059988e-06,0.0012331735,0.00015782841,-9.6846816e-05,-0.00040390666,-0.00017513156,0.00027357688,-0.00017565038,-0.0002379461,0.00052032614,0.0010232907,8.0262835e-06,0.0007093185,-0.0009986741,-0.00065189466,-0.0015316838,-1.3576723e-05,0.0007086656,-0.0006590843,0.00081480114,0.00072858424,-0.0006318377,0.00026839628,0.00046842697,-0.003253317,0.00020508627,-0.00029207213,-0.0002133079,0.0002477411,-0.00030548483,0.00017153705,0.00013569229,0.000643489,0.00045040157,-0.00073712505,0.0011798522,0.000248865,0.000308139,0.0010421148,0.0002737605,0.00017058838,0.0009492459,0.00025376643,0.0004485127,-2.9491865e-05,4.7141715e-05,-3.591843e-05,-7.083885e-05,0.00029920292,-6.665123e-05,-0.00050754036,-0.0001718907,0.0012401043,0.0001786397,-0.00015334881,-4.5418466e-05,-0.00015561192,-0.0006893688,-0.0017076576,6.729864e-05,0.00076392514,-0.0002912525,1.8142488e-05,0.00014224737,0.00025215096,-0.00012091746,-7.248753e-05,0.00015833134,0.00033752646,Donor:HBsRE_46
-0.00019317922,0.00049244234,-0.00010497536,-7.4800606e-05,0.0006384007,-0.00019574551,-0.00037365474,-0.00012909532,0.00056739047,-0.00026103063,0.00038810054,-0.0009459433,-0.00064285705,-0.00020347956,-0.00015462085,-0.00012602046,-0.00019835126,-0.00039063636,0.00057754695,0.00020204502,0.000940112,0.00015448233,0.00044570156,6.648021e-05,-0.00023350317,0.00027712068,-0.0013230732,1.2147629e-05,-0.00026877914,0.0009743356,0.00018914521,0.0002525277,-0.0001515574,0.0001912968,-0.0002837632,-0.00032650234,-0.0003472123,0.00037801565,-0.00017872803,8.546673e-05,-0.00017031311,0.0011227297,0.00020502789,-0.00011490374,0.00024592617,-0.00022019188,-0.00036937871,-0.00023696665,-0.00010665009,1.5383868e-05,0.00027181563,-0.00011751735,0.0010472437,-6.465747e-05,-0.00014395203,0.0008998963,0.00017330206,-0.00029916526,-6.90558e-05,0.00014675371,-2.0255236e-05,0.00036626804,-0.00036619138,0.00022930071,-0.00033113908,-0.00014821337,1.3230774e-05,0.00059192936,-0.00038396532,0.00072714995,0.000138585,0.00022838169,-0.00015322289,-0.00022740198,-0.0001773272,-0.00012712028,0.0004392366,0.00063810963,-0.00079997024,-0.00013580202,-0.00013410066,0.00046774663,-8.975955e-05,-0.0002072826,-5.1953986e-05,0.00021998247,0.00020360739,-3.271396e-05,5.947946e-05,-0.0012078552,-0.00016251027,0.00014086379,0.00021586358,0.00076885347,-0.00013296725,0.00016051608,0.0012194596,-0.00032544485,9.278721e-05,-0.00014800184,0.0001621311,-0.0003212144,7.715672e-05,0.00017468202,-2.2772942e-05,-0.00013863835,-0.00022800427,0.00025268228,-0.00016417453,0.00030340094,0.00016952067,0.0007863005,0.0011180167,-0.00025114106,-0.0003439652,-0.00023829952,-0.000318829,0.000120334706,0.00033614808,-0.00021291524,-0.00022639091,0.0002876299,8.156395e-05,0.00043052,0.00047460772,-5.6080597e-05,-4.4787004e-05,-0.00014516171,0.0006346058,-0.00029792465,-0.0002859677,4.789172e-05,-0.00019483009,0.0001811167,-0.00040820998,0.00017897734,-9.012283e-05,8.729746e-05,0.0012499643,0.00072876114,0.0001776043,0.00019884392,0.00019334117,-0.00013646737,0.0010928476,-9.871485e-05,-0.00024569104,-0.0003370835,0.00024346667,-0.00017382023,-0.00018861434,-0.00055889925,-0.0002888238,-2.6704067e-05,Donor:HBsRE_47
2.9494393e-05,0.00067351473,-8.3706726e-07,-0.00019674649,0.00022795105,-7.691673e-05,0.00016565122,-0.00017282114,0.00013594652,0.0001835396,-0.00023770619,-0.00016677837,0.00011341778,-0.00010115108,0.00012702846,0.00010530305,8.518774e-06,-9.55134e-05,-0.0002695521,-1.6014144e-05,3.731402e-05,0.00010273398,-1.9658305e-06,-0.0001790439,0.00021624505,2.4312292e-05,-0.00024269508,-0.00038002143,0.00011791134,0.00012339032,-0.000279757,8.924909e-05,0.00014772812,0.00019491355,0.00013875082,2.3563092e-05,3.803917e-05,-2.1758535e-05,-9.004059e-05,8.151902e-05,0.000106274594,-0.00010003178,-3.4580153e-05,-5.3899203e-06,-0.00018865668,0.0002214129,4.3915654e-05,8.216767e-05,0.00021374143,7.2268945e-06,0.00012427548,0.00012737441,-0.0002309151,4.6451883e-06,7.2336785e-05,-9.939512e-07,-0.00010468359,-6.885259e-06,1.88211e-05,4.3631126e-06,0.000211017,0.00012883857,4.427236e-05,7.874508e-07,0.0012459352,1.0731084e-07,-7.657719e-05,9.09489e-06,-4.3287884e-05,2.018625e-06,0.00019242095,5.6795153e-07,0.0012286062,-0.00016962484,0.00023778147,0.00021570451,-0.00016081198,-3.9363178e-05,0.00010379097,4.4719032e-05,0.0011931387,-7.623833e-05,5.848453e-05,0.00015728104,-1.2885499e-06,-9.9531935e-05,0.00015656289,0.00014203115,-0.00043834874,3.0795675e-07,-0.00021424949,1.4469284e-06,-0.0001794907,0.0017184196,-0.00010343165,-7.941965e-05,-0.00015101832,-0.00010257507,-0.00028117993,-5.6087283e-05,-1.9515562e-06,-1.2494157e-05,-0.00023213057,0.00010729177,-0.00025144735,-9.845516e-05,0.00021663413,-4.488431e-06,4.8145037e-05,-0.00016825073,4.879453e-08,0.00015830611,0.00014200422,0.00014527733,-8.02133e-05,0.00010896518,-5.192882e-05,-0.00018496078,2.2637107e-05,-0.0012107142,4.3026154e-07,-0.00019645703,-0.00024203394,-6.752088e-05,0.00010550348,1.6506954e-05,-9.847629e-05,-3.6554942e-05,-0.00013665363,-9.5152885e-05,0.00011851685,0.00012741765,1.1268241e-05,-8.888436e-05,-1.8372262e-05,2.4700228e-05,0.0001259478,-9.8993e-05,-0.00013866894,-0.00013012241,-0.00015751952,-0.00016901024,-0.0001030673,-0.00016306843,0.00011109013,-3.2196505e-05,-0.0001728964,-0.00019930578,0.00013764479,-0.000103150225,0.00012443047,0.00018752915,4.2542728e-05,0.00018187147,Donor:HBsRE_48
0.0002070264,7.9093326e-05,-3.0343397e-05,2.3327791e-05,3.471999e-05,-0.00024577684,-2.7737644e-05,-9.255446e-06,3.3200078e-05,-5.796605e-05,-4.833413e-05,-2.1766074e-05,0.00045023853,6.492659e-05,-2.4302597e-05,5.2513526e-05,4.7158137e-05,-3.4881217e-05,-1.0973722e-05,-8.766374e-05,2.876761e-05,3.215063e-06,8.314023e-06,6.5319335e-05,2.9564586e-05,-7.5176933e-07,-5.834351e-05,-0.00038160125,-0.00015923202,8.928318e-06,-2.0818852e-05,-3.2895304e-07,-4.746848e-05,0.00010750235,-0.0023918296,0.00031387355,4.1394058e-05,-0.0020298,-4.150568e-05,0.00024796647,-1.1833732e-05,-5.2338833e-05,4.266452e-05,-4.8438582e-05,-1.8631546e-05,3.2909673e-05,4.228623e-05,-6.6337445e-05,-3.9634137e-06,-3.2644955e-05,-0.000113922884,6.106599e-05,-0.0004586439,-8.21634e-05,4.9987844e-05,-8.440623e-05,4.1538893e-05,-0.0001048655,-0.000112732756,-8.5616535e-05,6.547472e-05,6.353663e-05,3.783797e-05,-8.7412045e-05,3.208948e-05,4.4162003e-05,-6.178574e-05,0.0012945011,-0.0004057889,6.46242e-06,8.8051216e-05,-9.568741e-06,4.291893e-05,-3.0419122e-05,6.3001615e-05,1.2789048e-05,0.00040729681,-7.9096084e-05,-0.00016987718,-6.334678e-05,9.457479e-06,-7.1998664e-05,0.00056067517,-7.273268e-05,-6.360015e-05,0.00016678852,-2.1258853e-05,0.0017222326,-1.47121855e-05,-0.00092074374,0.00040984058,2.6482952e-05,3.452151e-05,-0.0005986398,2.6482348e-05,-4.8037662e-05,-7.5150194e-05,-2.5303043e-05,-5.8211008e-05,-0.00016832989,-8.2178245e-05,-0.00015261282,6.529728e-05,6.814842e-05,-9.1515e-05,6.697322e-05,4.7670233e-05,6.4859995e-07,-7.437248e-07,-8.170078e-05,-7.0786436e-06,-1.03234715e-05,-0.0019011825,-4.2397136e-05,-2.9424116e-06,-2.0281741e-05,3.9381997e-05,-0.00028583725,-3.3507673e-05,-1.0041135e-05,-3.6951584e-05,8.3184095e-05,1.0513126e-06,3.2022905e-05,-6.4250315e-05,-0.00013378127,-0.00013884962,-3.3027514e-05,1.6259799e-05,-7.5768505e-05,-0.0002362894,0.00035699445,9.723382e-06,5.788083e-05,7.70202e-05,-2.9369043e-05,-3.5645524e-05,-6.841432e-05,5.894318e-07,-8.77875e-05,1.8752056e-05,0.00023285748,-2.0911418e-06,-0.001153813,3.6969916e-05,-0.0011225754,2.7706978e-05,6.5032706e-05,7.036616e-05,-0.00014533394,-1.7156475e-05,9.596054e-06,-7.917524e-05,1.8451698e-05,Donor:HBsRE_49
6.498078e-05,2.5468209e-05,-9.110925e-07,-7.656757e-05,-9.019673e-08,3.551558e-08,7.5611314e-07,-6.306519e-05,-2.5567626e-06,1.3989682e-05,-8.518405e-08,1.9912863e-05,6.1441347e-07,4.1167364e-06,3.3963838e-06,-1.4530101e-06,-2.0078832e-07,1.2651532e-05,8.528418e-05,7.416063e-05,-2.9241503e-06,-3.647172e-05,5.0138657e-05,-6.131398e-05,8.1336446e-05,-2.3731532e-06,-7.5234443e-06,-9.589875e-06,-2.1205353e-06,-1.1117243e-06,2.5296324e-05,2.2443146e-06,-9.412566e-08,3.170702e-05,-0.000115202274,-1.1430701e-05,2.9658727e-07,0.00012463909,-1.4684992e-06,-7.113874e-05,-9.604155e-06,-0.0002554965,-6.5674576e-05,-8.5808273e-07,-1.9817594e-07,-3.118061e-05,-2.9109939e-05,-8.331267e-05,-5.9716417e-06,6.304307e-05,-8.428532e-07,-4.8396494e-05,-0.00016962904,-1.0798615e-06,-0.00025477106,-2.9521814e-05,-1.3734784e-06,3.183056e-06,-3.5397356e-05,-1.4516241e-05,-4.1605013e-05,-3.4899353e-05,-4.966907e-05,-5.5254528e-08,1.3071705e-05,6.8417256e-05,5.4347e-05,-4.8377156e-06,-7.2038654e-07,-8.1326453e-07,-2.4628112e-05,5.3515123e-06,5.8118392e-05,4.2208692e-05,-1.581935e-06,5.660222e-05,3.7821312e-07,-5.745896e-06,4.1610427e-05,4.984123e-05,4.8980022e-05,6.739634e-06,-8.246292e-06,5.5404806e-05,6.723891e-07,5.117555e-06,3.6272686e-05,-0.00032209864,-2.5254822e-05,-0.00011300286,-4.972998e-07,-4.4616097e-08,-7.1305476e-05,1.5953992e-05,-1.999185e-05,-5.123309e-05,-1.2444721e-07,-6.948678e-07,-8.769769e-06,-8.462238e-06,0.00021338173,-3.5860273e-07,-1.9792223e-07,-3.0433088e-05,5.2292067e-05,-3.4050943e-05,1.5296813e-05,-9.6074284e-05,-2.0668123e-05,0.001649989,5.04509e-05,1.309619e-05,-1.1216147e-05,3.637699e-07,-6.1047863e-06,0.00014770844,-3.743673e-05,-0.0002436548,7.51551e-05,-3.872537e-07,5.681794e-05,-5.999657e-08,-2.7070846e-05,-5.9353082e-05,-2.21935e-06,-0.00022628266,2.8585317e-05,-9.536686e-07,-0.00019025405,-4.698046e-07,-4.7718027e-06,2.8001834e-05,6.759468e-07,8.884606e-07,6.187312e-06,7.4592356e-07,-7.7394456e-05,5.096407e-05,-1.5622259e-06,-7.3369523e-07,-1.5809457e-05,-6.992176e-05,-4.1842188e-07,0.00016999671,-7.69926e-05,-6.105217e-06,-6.706002e-07,-4.8488942e-05,-2.5363579e-05,-5.280375e-05,4.3668155e-05,-3.789713e-06,3.8054393e-05,4.6798664e-06,Donor:HBsRE_5
